{"learner":{"attributes":{"best_iteration":"138","best_ntree_limit":"139","scikit_learn":"{\"use_label_encoder\": false, \"n_estimators\": 139, \"objective\": \"multi:softprob\", \"max_depth\": 5, \"max_leaves\": null, \"max_bin\": null, \"grow_policy\": null, \"learning_rate\": 0.28985284373248055, \"verbosity\": null, \"booster\": null, \"tree_method\": null, \"gamma\": 0.02904180608409973, \"min_child_weight\": null, \"max_delta_step\": null, \"subsample\": 0.8832290311184181, \"sampling_method\": null, \"colsample_bytree\": 0.7467983561008608, \"colsample_bylevel\": null, \"colsample_bynode\": null, \"reg_alpha\": null, \"reg_lambda\": null, \"scale_pos_weight\": null, \"base_score\": null, \"missing\": NaN, \"num_parallel_tree\": null, \"random_state\": 42, \"n_jobs\": null, \"monotone_constraints\": null, \"interaction_constraints\": null, \"importance_type\": null, \"gpu_id\": null, \"validate_parameters\": null, \"predictor\": null, \"enable_categorical\": false, \"max_cat_to_onehot\": null, \"eval_metric\": null, \"early_stopping_rounds\": null, \"callbacks\": null, \"classes_\": [0, 1, 2, 3, 4, 5, 6, 7, 8, 9], \"n_classes_\": 10, \"_estimator_type\": \"classifier\"}"},"feature_names":["Tempo","Chroma_STFT_Mean","Chroma_STFT_Var","RMS_Mean","RMS_Var","Spectral_Centroid_Mean","Spectral_Centroid_Var","Spectral_Bandwidth_Mean","Spectral_Bandwidth_Var","Spectral_Rolloff_Mean","Spectral_Rolloff_Var","Zero_Crossing_Rate_Mean","Zero_Crossing_Rate_Var","Harmony_Mean","Harmony_Var","Perceptr_Mean","Perceptr_Var","MFCC1_Mean","MFCC1_Var","MFCC2_Mean","MFCC2_Var","MFCC3_Mean","MFCC3_Var","MFCC4_Mean","MFCC4_Var","MFCC5_Mean","MFCC5_Var","MFCC6_Mean","MFCC6_Var","MFCC7_Mean","MFCC7_Var","MFCC8_Mean","MFCC8_Var","MFCC9_Mean","MFCC9_Var","MFCC10_Mean","MFCC10_Var","MFCC11_Mean","MFCC11_Var","MFCC12_Mean","MFCC12_Var","MFCC13_Mean","MFCC13_Var","MFCC14_Mean","MFCC14_Var","MFCC15_Mean","MFCC15_Var","MFCC16_Mean","MFCC16_Var","MFCC17_Mean","MFCC17_Var","MFCC18_Mean","MFCC18_Var","MFCC19_Mean","MFCC19_Var","MFCC20_Mean","MFCC20_Var"],"feature_types":["float","float","float","float","float","float","float","float","float","float","float","float","float","float","float","float","float","float","float","float","float","float","float","float","float","float","float","float","float","float","float","float","float","float","float","float","float","float","float","float","float","float","float","float","float","float","float","float","float","float","float","float","float","float","float","float","float"],"gradient_booster":{"model":{"gbtree_model_param":{"num_parallel_tree":"1","num_trees":"1390","size_leaf_vector":"0"},"tree_info":[0,1,2,3,4,5,6,7,8,9,0,1,2,3,4,5,6,7,8,9,0,1,2,3,4,5,6,7,8,9,0,1,2,3,4,5,6,7,8,9,0,1,2,3,4,5,6,7,8,9,0,1,2,3,4,5,6,7,8,9,0,1,2,3,4,5,6,7,8,9,0,1,2,3,4,5,6,7,8,9,0,1,2,3,4,5,6,7,8,9,0,1,2,3,4,5,6,7,8,9,0,1,2,3,4,5,6,7,8,9,0,1,2,3,4,5,6,7,8,9,0,1,2,3,4,5,6,7,8,9,0,1,2,3,4,5,6,7,8,9,0,1,2,3,4,5,6,7,8,9,0,1,2,3,4,5,6,7,8,9,0,1,2,3,4,5,6,7,8,9,0,1,2,3,4,5,6,7,8,9,0,1,2,3,4,5,6,7,8,9,0,1,2,3,4,5,6,7,8,9,0,1,2,3,4,5,6,7,8,9,0,1,2,3,4,5,6,7,8,9,0,1,2,3,4,5,6,7,8,9,0,1,2,3,4,5,6,7,8,9,0,1,2,3,4,5,6,7,8,9,0,1,2,3,4,5,6,7,8,9,0,1,2,3,4,5,6,7,8,9,0,1,2,3,4,5,6,7,8,9,0,1,2,3,4,5,6,7,8,9,0,1,2,3,4,5,6,7,8,9,0,1,2,3,4,5,6,7,8,9,0,1,2,3,4,5,6,7,8,9,0,1,2,3,4,5,6,7,8,9,0,1,2,3,4,5,6,7,8,9,0,1,2,3,4,5,6,7,8,9,0,1,2,3,4,5,6,7,8,9,0,1,2,3,4,5,6,7,8,9,0,1,2,3,4,5,6,7,8,9,0,1,2,3,4,5,6,7,8,9,0,1,2,3,4,5,6,7,8,9,0,1,2,3,4,5,6,7,8,9,0,1,2,3,4,5,6,7,8,9,0,1,2,3,4,5,6,7,8,9,0,1,2,3,4,5,6,7,8,9,0,1,2,3,4,5,6,7,8,9,0,1,2,3,4,5,6,7,8,9,0,1,2,3,4,5,6,7,8,9,0,1,2,3,4,5,6,7,8,9,0,1,2,3,4,5,6,7,8,9,0,1,2,3,4,5,6,7,8,9,0,1,2,3,4,5,6,7,8,9,0,1,2,3,4,5,6,7,8,9,0,1,2,3,4,5,6,7,8,9,0,1,2,3,4,5,6,7,8,9,0,1,2,3,4,5,6,7,8,9,0,1,2,3,4,5,6,7,8,9,0,1,2,3,4,5,6,7,8,9,0,1,2,3,4,5,6,7,8,9,0,1,2,3,4,5,6,7,8,9,0,1,2,3,4,5,6,7,8,9,0,1,2,3,4,5,6,7,8,9,0,1,2,3,4,5,6,7,8,9,0,1,2,3,4,5,6,7,8,9,0,1,2,3,4,5,6,7,8,9,0,1,2,3,4,5,6,7,8,9,0,1,2,3,4,5,6,7,8,9,0,1,2,3,4,5,6,7,8,9,0,1,2,3,4,5,6,7,8,9,0,1,2,3,4,5,6,7,8,9,0,1,2,3,4,5,6,7,8,9,0,1,2,3,4,5,6,7,8,9,0,1,2,3,4,5,6,7,8,9,0,1,2,3,4,5,6,7,8,9,0,1,2,3,4,5,6,7,8,9,0,1,2,3,4,5,6,7,8,9,0,1,2,3,4,5,6,7,8,9,0,1,2,3,4,5,6,7,8,9,0,1,2,3,4,5,6,7,8,9,0,1,2,3,4,5,6,7,8,9,0,1,2,3,4,5,6,7,8,9,0,1,2,3,4,5,6,7,8,9,0,1,2,3,4,5,6,7,8,9,0,1,2,3,4,5,6,7,8,9,0,1,2,3,4,5,6,7,8,9,0,1,2,3,4,5,6,7,8,9,0,1,2,3,4,5,6,7,8,9,0,1,2,3,4,5,6,7,8,9,0,1,2,3,4,5,6,7,8,9,0,1,2,3,4,5,6,7,8,9,0,1,2,3,4,5,6,7,8,9,0,1,2,3,4,5,6,7,8,9,0,1,2,3,4,5,6,7,8,9,0,1,2,3,4,5,6,7,8,9,0,1,2,3,4,5,6,7,8,9,0,1,2,3,4,5,6,7,8,9,0,1,2,3,4,5,6,7,8,9,0,1,2,3,4,5,6,7,8,9,0,1,2,3,4,5,6,7,8,9,0,1,2,3,4,5,6,7,8,9,0,1,2,3,4,5,6,7,8,9,0,1,2,3,4,5,6,7,8,9,0,1,2,3,4,5,6,7,8,9,0,1,2,3,4,5,6,7,8,9,0,1,2,3,4,5,6,7,8,9,0,1,2,3,4,5,6,7,8,9,0,1,2,3,4,5,6,7,8,9,0,1,2,3,4,5,6,7,8,9,0,1,2,3,4,5,6,7,8,9,0,1,2,3,4,5,6,7,8,9,0,1,2,3,4,5,6,7,8,9,0,1,2,3,4,5,6,7,8,9,0,1,2,3,4,5,6,7,8,9,0,1,2,3,4,5,6,7,8,9,0,1,2,3,4,5,6,7,8,9,0,1,2,3,4,5,6,7,8,9,0,1,2,3,4,5,6,7,8,9,0,1,2,3,4,5,6,7,8,9,0,1,2,3,4,5,6,7,8,9,0,1,2,3,4,5,6,7,8,9,0,1,2,3,4,5,6,7,8,9,0,1,2,3,4,5,6,7,8,9,0,1,2,3,4,5,6,7,8,9,0,1,2,3,4,5,6,7,8,9,0,1,2,3,4,5,6,7,8,9,0,1,2,3,4,5,6,7,8,9,0,1,2,3,4,5,6,7,8,9,0,1,2,3,4,5,6,7,8,9,0,1,2,3,4,5,6,7,8,9,0,1,2,3,4,5,6,7,8,9,0,1,2,3,4,5,6,7,8,9,0,1,2,3,4,5,6,7,8,9,0,1,2,3,4,5,6,7,8,9,0,1,2,3,4,5,6,7,8,9,0,1,2,3,4,5,6,7,8,9,0,1,2,3,4,5,6,7,8,9,0,1,2,3,4,5,6,7,8,9,0,1,2,3,4,5,6,7,8,9,0,1,2,3,4,5,6,7,8,9,0,1,2,3,4,5,6,7,8,9],"trees":[{"base_weights":[1.2115208E-2,1.345339E0,-8.4729485E-2,-1.4172712E-1,2.2932005E0,-2.992869E-1,3.8091466E-1,1.3054187E0,-3.5190618E-1,-3.3707866E-1,2.703445E0,1.5929204E0,-3.607621E-1,8.3159864E-1,-2.5280493E-1,2.3282442E0,-3.2786888E-1,1.460177E0,-4.957725E-1,1.9230768E-1,-4.6357617E-1,3.3387623E0,5.5984557E-1,2.9573712E0,2.1880063E-1,1.6443096E-1,-4.411667E-1,5.912926E-1,2.1303174E0,3.03712E-1,-4.4303802E-1,-5.332799E-1,1.9230768E-1,1.0309277E-1,3.6700215E0,-3.254438E-1,1.7391305E0,-1.1363638E-1,3.8558352E0,-4.846939E-1,1.1818181E0,-1.911221E-1,2.4878445E0,-2.2454427E-1,-5.328259E-1,3.1439853E-1,1.6828972E0,8.274399E-1,3.118932E0,-2.2904065E-1,1.1997019E0,4.9180326E-1,-4.6118906E-1],"categories":[],"categories_nodes":[],"categories_segments":[],"categories_sizes":[],"default_left":[1,1,1,1,1,1,1,1,1,1,1,1,1,1,1,0,0,0,1,0,0,1,1,1,1,1,1,1,1,1,1,0,0,0,0,0,0,0,0,0,0,0,0,0,0,0,0,0,0,0,0,0,0],"id":0,"left_children":[1,3,5,7,9,11,13,15,17,19,21,23,25,27,29,-1,-1,-1,31,-1,-1,33,35,37,39,41,43,45,47,49,51,-1,-1,-1,-1,-1,-1,-1,-1,-1,-1,-1,-1,-1,-1,-1,-1,-1,-1,-1,-1,-1,-1],"loss_changes":[1.4398755E2,1.0677292E2,1.0399572E2,9.687592E0,5.074214E1,8.343907E1,9.4009384E1,7.5458655E0,7.8357496E0,5.659475E-1,5.2687134E1,4.172609E1,2.9241913E1,5.8711548E1,1.4665989E1,0E0,0E0,0E0,7.740803E-1,0E0,0E0,3.2527313E1,1.1381916E1,3.1506645E1,8.932894E0,7.683987E1,1.1780113E1,4.8902313E1,3.5571136E1,1.7249025E1,1.9694633E0,0E0,0E0,0E0,0E0,0E0,0E0,0E0,0E0,0E0,0E0,0E0,0E0,0E0,0E0,0E0,0E0,0E0,0E0,0E0,0E0,0E0,0E0],"parents":[2147483647,0,0,1,1,2,2,3,3,4,4,5,5,6,6,7,7,8,8,9,9,10,10,11,11,12,12,13,13,14,14,18,18,21,21,22,22,23,23,24,24,25,25,26,26,27,27,28,28,29,29,30,30],"right_children":[2,4,6,8,10,12,14,16,18,20,22,24,26,28,30,-1,-1,-1,32,-1,-1,34,36,38,40,42,44,46,48,50,52,-1,-1,-1,-1,-1,-1,-1,-1,-1,-1,-1,-1,-1,-1,-1,-1,-1,-1,-1,-1,-1,-1],"split_conditions":[-1.353264E0,-5.398948E-1,5.2540815E-1,-7.6203156E-1,-1.3193203E-2,-1.7317269E0,5.8670187E-1,1.7138212E0,-1.5499444E0,-1.0390729E0,1.6367435E-1,-2.4024978E-1,-9.425348E-1,1.4837143E0,9.702279E-2,6.7484826E-1,-9.5033735E-2,4.2323646E-1,1.2500687E0,5.574093E-2,-1.3436888E-1,1.22686654E-1,1.0985525E0,-7.637007E-1,-8.2702875E-1,6.876023E-1,-5.04447E-1,-1.6777122E-2,-5.369334E-1,-6.9374917E-3,-1.2228844E0,-1.545727E-1,5.574093E-2,2.9881733E-2,1.0637662E0,-9.433082E-2,5.040919E-1,-3.293783E-2,1.1176249E0,-1.4048992E-1,3.4255335E-1,-5.5397287E-2,7.2110885E-1,-6.50848E-2,-1.544411E-1,9.112931E-2,4.8779255E-1,2.3983581E-1,9.0403134E-1,-6.6388085E-2,3.47737E-1,1.4255057E-1,-1.3367696E-1],"split_indices":[11,4,23,41,21,29,1,19,13,0,39,55,29,23,5,0,0,0,43,0,0,2,19,22,21,14,5,4,21,4,55,0,0,0,0,0,0,0,0,0,0,0,0,0,0,0,0,0,0,0,0,0,0],"split_type":[0,0,0,0,0,0,0,0,0,0,0,0,0,0,0,0,0,0,0,0,0,0,0,0,0,0,0,0,0,0,0,0,0,0,0,0,0,0,0,0,0,0,0,0,0,0,0,0,0,0,0,0,0],"sum_hessian":[1.1132999E3,7.452E1,1.0387799E3,2.9339998E1,4.5179996E1,7.1136E2,3.2741998E2,3.06E0,2.6279999E1,6.12E0,3.9059998E1,2.1599998E1,6.8975995E2,1.9115999E2,1.3626E2,1.6199999E0,1.4399999E0,1.26E0,2.5019999E1,1.0799999E0,5.04E0,2.9699999E1,9.36E0,1.0259999E1,1.1339999E1,9.1439995E1,5.9831995E2,1.6254E2,2.8619999E1,3.4559998E1,1.017E2,2.3939999E1,1.0799999E0,2.8799999E0,2.682E1,5.7599998E0,3.6E0,2.52E0,7.74E0,6.8399997E0,4.5E0,8.01E1,1.1339999E1,1.7892E2,4.194E2,1.3068E2,3.1859999E1,1.3139999E1,1.548E1,2.214E1,1.2419999E1,1.4399999E0,1.00259995E2],"tree_param":{"num_deleted":"0","num_feature":"57","num_nodes":"53","size_leaf_vector":"0"}},{"base_weights":[1.3840437E-2,3.4279141E0,-3.3902675E-1,4.3865867E0,1.1201502E0,6.390024E-1,-4.9849156E-1,4.5743475E0,-1.546392E-1,2.5888326E0,-2.906977E-1,3.6277874E0,5.09948E-2,8.506224E-1,-5.130383E-1,4.651467E0,8.015267E-1,1.9230768E-1,-3.5714287E-1,3.821218E0,2.8875378E-1,1.1538461E0,-4.590571E-1,-4.1237116E-1,4.2172213E0,1.5082444E0,-2.5000003E-1,2.5113122E0,-4.6623796E-1,7.013575E-1,-5.187071E-1,1.1538461E0,4.690174E0,1.1538461E0,4.010989E0,1.460177E0,-2.631579E-1,1.9230768E-1,-5.1861703E-1,4.431818E0,1.9230768E-1,3.5530548E0,5.8441556E-1,-3.936833E-1,9.3862814E-1,3.2035928E0,1.9230768E-1,2.1153846E0,-3.8922158E-1,-2.2081481E-1,-5.3984034E-1],"categories":[],"categories_nodes":[],"categories_segments":[],"categories_sizes":[],"default_left":[1,1,1,1,1,1,1,1,1,1,1,1,1,1,1,1,0,0,0,1,1,0,1,0,1,1,1,1,0,1,1,0,0,0,0,0,0,0,0,0,0,0,0,0,0,0,0,0,0,0,0],"id":1,"left_children":[1,3,5,7,9,11,13,15,17,19,21,23,25,27,29,31,-1,-1,-1,33,35,-1,37,-1,39,41,43,45,-1,47,49,-1,-1,-1,-1,-1,-1,-1,-1,-1,-1,-1,-1,-1,-1,-1,-1,-1,-1,-1,-1],"loss_changes":[1.3416238E3,2.2588293E2,1.5773956E2,6.3258667E1,6.697649E1,2.4926434E2,1.7479279E1,1.6778442E1,3.4128243E-1,4.356965E1,4.7127647E0,5.7273438E1,5.284533E1,2.2252552E1,6.28273E0,3.9108887E0,0E0,0E0,0E0,5.2493286E-1,4.638373E0,0E0,7.251134E-1,0E0,1.680249E1,3.687585E1,1.744812E1,6.479801E0,0E0,7.639472E0,5.271942E0,0E0,0E0,0E0,0E0,0E0,0E0,0E0,0E0,0E0,0E0,0E0,0E0,0E0,0E0,0E0,0E0,0E0,0E0,0E0,0E0],"parents":[2147483647,0,0,1,1,2,2,3,3,4,4,5,5,6,6,7,7,8,8,9,9,10,10,11,11,12,12,13,13,14,14,15,15,19,19,20,20,22,22,24,24,25,25,26,26,27,27,29,29,30,30],"right_children":[2,4,6,8,10,12,14,16,18,20,22,24,26,28,30,32,-1,-1,-1,34,36,-1,38,-1,40,42,44,46,-1,48,50,-1,-1,-1,-1,-1,-1,-1,-1,-1,-1,-1,-1,-1,-1,-1,-1,-1,-1,-1,-1],"split_conditions":[-1.3123653E0,-4.229148E-1,-9.1412556E-1,8.1299144E-1,-3.3015728E-1,-9.3624735E-1,-1.0859096E0,3.2077923E-2,-4.535641E-1,-8.644408E-1,-1.6856012E0,-1.2861178E0,-7.606621E-1,-1.0274635E-1,-1.0766633E0,-2.0557683E0,2.3232481E-1,5.574093E-2,-1.0351888E-1,-1.4925687E0,-7.1544546E-1,3.344456E-1,-7.240559E-1,-1.1952696E-1,7.9330313E-1,-1.2169074E0,-3.611471E-1,1.5671444E-1,-1.351404E-1,-3.6335516E-1,-9.4249785E-1,3.344456E-1,1.3594604E0,3.344456E-1,1.1625967E0,4.2323646E-1,-7.627707E-2,5.574093E-2,-1.5032263E-1,1.2845751E0,5.574093E-2,1.0298631E0,1.6939452E-1,-1.1411023E-1,2.7206406E-1,9.285705E-1,5.574093E-2,6.1315024E-1,-1.1281699E-1,-6.40038E-2,-1.5647426E-1],"split_indices":[3,8,7,23,27,24,22,7,0,9,3,11,22,1,44,5,0,0,0,11,4,0,20,0,23,27,11,13,0,7,3,0,0,0,0,0,0,0,0,0,0,0,0,0,0,0,0,0,0,0,0],"split_type":[0,0,0,0,0,0,0,0,0,0,0,0,0,0,0,0,0,0,0,0,0,0,0,0,0,0,0,0,0,0,0,0,0,0,0,0,0,0,0,0,0,0,0,0,0,0,0,0,0,0,0],"sum_hessian":[1.1116799E3,1.0331999E2,1.00836E3,7.236E1,3.096E1,1.4093999E2,8.6742E2,6.9479996E1,2.8799999E0,1.4759999E1,1.6199999E1,2.232E1,1.18619995E2,8.639999E0,8.5877997E2,6.786E1,1.6199999E0,1.0799999E0,1.8E0,9.179999E0,5.58E0,1.0799999E0,1.5119999E1,2.8799999E0,1.9439999E1,1.9619999E1,9.899999E1,3.4199998E0,5.22E0,3.4199998E0,8.5536E2,1.0799999E0,6.678E1,1.0799999E0,8.099999E0,1.26E0,4.3199997E0,1.0799999E0,1.4039999E1,1.8359999E1,1.0799999E0,5.22E0,1.44E1,8.892E1,1.008E1,2.34E0,1.0799999E0,1.0799999E0,2.34E0,5.742E1,7.9793994E2],"tree_param":{"num_deleted":"0","num_feature":"57","num_nodes":"51","size_leaf_vector":"0"}},{"base_weights":[1.1216827E-2,2.5240216E-1,-4.421946E-1,-5.222791E-1,4.3283987E-1,-1.8783544E-1,-4.840277E-1,-5.512058E-1,-1.0805503E-1,5.999344E-1,-3.8940188E-1,1.0227273E0,-2.641439E-1,-2.647596E-1,-5.066228E-1,6.185567E-1,-4.7945207E-1,-2.4548577E-1,9.176769E-1,1.4959201E-1,-5.3575975E-1,-3.2786888E-1,2.1153846E0,8.083832E-1,-3.2915363E-1,5.331412E-1,-4.606241E-1,-1.3595168E-1,-5.220532E-1,1.6346154E0,-3.5714287E-1,-4.913861E-1,5.2647597E-1,1.2626774E0,4.8264983E-1,1.0459183E0,-3.2194483E-1,1.9230768E-1,-5.483871E-1,-3.0973452E-1,1.6346154E0,6.730769E-1,-3.6429146E-1,-4.1237116E-1,1.3054187E0,-5.3405577E-1,6.730769E-1,2.1153846E0,-5.0986844E-1,1.9230768E-1,-5.254452E-1],"categories":[],"categories_nodes":[],"categories_segments":[],"categories_sizes":[],"default_left":[1,1,1,1,1,1,1,0,1,1,1,1,1,1,1,1,0,1,1,1,1,0,0,1,1,1,1,1,1,0,0,0,0,0,0,0,0,0,0,0,0,0,0,0,0,0,0,0,0,0,0],"id":2,"left_children":[1,3,5,7,9,11,13,-1,15,17,19,21,23,25,27,29,-1,31,33,35,37,-1,-1,39,41,43,45,47,49,-1,-1,-1,-1,-1,-1,-1,-1,-1,-1,-1,-1,-1,-1,-1,-1,-1,-1,-1,-1,-1,-1],"loss_changes":[1.21002686E2,1.011848E2,3.997429E0,1.5807991E0,8.079483E1,5.4339747E0,1.4974365E0,0E0,3.0437577E0,1.3123952E2,7.9403477E0,5.8881683E0,3.9879866E0,5.380953E0,1.6303787E0,4.430299E0,0E0,2.5699133E1,5.262555E1,9.660407E0,8.278904E-1,0E0,0E0,3.5918715E0,2.0426311E0,5.6058903E0,2.6005378E0,1.2224163E1,7.921753E-1,0E0,0E0,0E0,0E0,0E0,0E0,0E0,0E0,0E0,0E0,0E0,0E0,0E0,0E0,0E0,0E0,0E0,0E0,0E0,0E0,0E0,0E0],"parents":[2147483647,0,0,1,1,2,2,3,3,4,4,5,5,6,6,8,8,9,9,10,10,11,11,12,12,13,13,14,14,15,15,17,17,18,18,19,19,20,20,23,23,24,24,25,25,26,26,27,27,28,28],"right_children":[2,4,6,8,10,12,14,-1,16,18,20,22,24,26,28,30,-1,32,34,36,38,-1,-1,40,42,44,46,48,50,-1,-1,-1,-1,-1,-1,-1,-1,-1,-1,-1,-1,-1,-1,-1,-1,-1,-1,-1,-1,-1,-1],"split_conditions":[4.4036037E-1,5.3501897E-2,5.707281E-1,-4.6128903E-2,3.3220816E-1,-8.745707E-1,-8.352587E-1,-1.5976858E-1,-3.9821815E-1,-9.8254365E-1,-6.01636E-1,5.0768864E-1,-6.781504E-1,-3.5540205E-1,-9.856522E-1,-5.660716E-1,-1.3897055E-1,-3.3690834E-1,-3.9525434E-1,-4.5356116E-1,-7.8616977E-1,-9.5033735E-2,6.1315024E-1,-1.0021769E0,-9.4046587E-1,-4.3549812E-1,1.8174613E-1,-3.2492554E-1,-1.4993476E0,4.7379795E-1,-1.0351888E-1,-1.4242966E-1,1.5260056E-1,3.6599067E-1,1.3989744E-1,3.0316243E-1,-9.331663E-2,5.574093E-2,-1.5895157E-1,-8.977744E-2,4.7379795E-1,1.9509327E-1,-1.0559092E-1,-1.1952696E-1,3.7837934E-1,-1.5479758E-1,1.9509327E-1,6.1315024E-1,-1.4778683E-1,5.574093E-2,-1.523018E-1],"split_indices":[1,13,1,13,16,18,35,0,47,3,33,9,16,16,18,22,0,24,12,56,6,0,0,3,44,22,31,23,9,0,0,0,0,0,0,0,0,0,0,0,0,0,0,0,0,0,0,0,0,0,0],"split_type":[0,0,0,0,0,0,0,0,0,0,0,0,0,0,0,0,0,0,0,0,0,0,0,0,0,0,0,0,0,0,0,0,0,0,0,0,0,0,0,0,0,0,0,0,0,0,0,0,0,0,0],"sum_hessian":[1.10448E3,7.2125995E2,3.8321997E2,1.359E2,5.8536E2,5.4899998E1,3.2831998E2,1.2671999E2,9.179999E0,4.8671997E2,9.864E1,2.52E0,5.2379997E1,3.1859999E1,2.9646E2,2.8799999E0,6.2999997E0,1.3301999E2,3.5369998E2,2.106E1,7.7579994E1,1.4399999E0,1.0799999E0,2.34E0,5.0039997E1,5.9399996E0,2.5919998E1,1.224E1,2.8422E2,1.0799999E0,1.8E0,1.01159996E2,3.1859999E1,1.962E2,1.575E2,6.8399997E0,1.4219999E1,1.0799999E0,7.65E1,1.26E0,1.0799999E0,1.0799999E0,4.896E1,2.8799999E0,3.06E0,2.4839998E1,1.0799999E0,1.0799999E0,1.116E1,1.0799999E0,2.8313998E2],"tree_param":{"num_deleted":"0","num_feature":"57","num_nodes":"51","size_leaf_vector":"0"}},{"base_weights":[-9.943973E-3,-4.1735876E-1,3.4796917E-1,-5.1091E-1,-1.2105768E-1,8.929889E-1,-1.1552191E-1,-5.15869E-1,5.7522124E-1,1.1811723E0,-2.471813E-1,6.85453E-2,1.4063249E0,9.3933463E-1,-1.870125E-1,-3.557911E-1,-5.3922147E-1,3.0544748E0,-3.3707866E-1,-5.0702626E-1,-2.828412E-2,6.3132656E-1,-2.4087594E-1,2.1696012E0,5.126566E-1,1.9724771E0,-2.1821634E-1,1.5165482E-2,-3.9110637E-1,2.4390243E-1,-4.557406E-1,-5.448118E-1,-3.045187E-1,5.7522124E-1,3.7113402E0,-4.6357617E-1,1.9230768E-1,-5.2497053E-1,-1.3304609E-8,3.6403236E-1,-4.1538465E-1,3.025063E-2,1.4935066E0,-3.425519E-1,9.044368E-1,2.700979E0,5.403087E-1,8.273894E-1,-2.7225587E-1,2.682927E0,-1.3513516E-1,8.015267E-1,-4.9327356E-1,2.1383074E-1,-4.9579048E-1,-4.3249688E-1,4.3080938E-1],"categories":[],"categories_nodes":[],"categories_segments":[],"categories_sizes":[],"default_left":[1,1,1,1,1,1,1,1,0,1,1,1,1,1,1,1,1,1,1,1,1,1,1,1,1,1,1,1,1,0,0,0,0,0,0,0,0,0,0,0,0,0,0,0,0,0,0,0,0,0,0,0,0,0,0,0,0],"id":3,"left_children":[1,3,5,7,9,11,13,15,-1,17,19,21,23,25,27,29,31,33,35,37,39,41,43,45,47,49,51,53,55,-1,-1,-1,-1,-1,-1,-1,-1,-1,-1,-1,-1,-1,-1,-1,-1,-1,-1,-1,-1,-1,-1,-1,-1,-1,-1,-1,-1],"loss_changes":[1.614503E2,1.4290665E1,1.489976E2,2.414688E0,2.091418E1,1.1459529E2,2.4263866E1,1.2733765E0,0E0,3.3054653E1,6.543845E0,1.8443367E1,1.1277377E2,2.4874928E1,1.238409E1,3.278336E0,2.8035736E-1,6.235832E0,5.659475E-1,4.7911263E-1,9.815959E0,1.9409382E1,8.286694E0,7.623483E1,1.9548555E1,1.6683697E1,3.3517122E0,1.5500899E1,5.266117E0,0E0,0E0,0E0,0E0,0E0,0E0,0E0,0E0,0E0,0E0,0E0,0E0,0E0,0E0,0E0,0E0,0E0,0E0,0E0,0E0,0E0,0E0,0E0,0E0,0E0,0E0,0E0,0E0],"parents":[2147483647,0,0,1,1,2,2,3,3,4,4,5,5,6,6,7,7,9,9,10,10,11,11,12,12,13,13,14,14,15,15,16,16,17,17,18,18,19,19,20,20,21,21,22,22,23,23,24,24,25,25,26,26,27,27,28,28],"right_children":[2,4,6,8,10,12,14,16,-1,18,20,22,24,26,28,30,32,34,36,38,40,42,44,46,48,50,52,54,56,-1,-1,-1,-1,-1,-1,-1,-1,-1,-1,-1,-1,-1,-1,-1,-1,-1,-1,-1,-1,-1,-1,-1,-1,-1,-1,-1,-1],"split_conditions":[-3.9854223E-1,6.3576275E-1,4.5808785E-2,2.2750797E0,-1.05211E0,1.7537056E-1,-1.174893E0,-1.030057E0,1.6672952E-1,-4.941082E-1,-4.916769E-1,2.8611702E-1,3.415869E-3,-2.2946842E-2,8.46239E-1,-1.0966218E0,1.0853986E0,5.975212E-1,-1.6446894E-1,-4.094041E-1,-5.087321E-1,1.3560146E-1,1.5918331E0,5.9996396E-1,1.0516334E0,7.9830766E-1,-2.5634122E-1,7.647992E-1,1.5476297E0,7.069582E-2,-1.3209772E-1,-1.5791525E-1,-8.826561E-2,1.6672952E-1,1.0757426E0,-1.3436888E-1,5.574093E-2,-1.521642E-1,-3.8563788E-9,1.0551582E-1,-1.2040043E-1,8.768232E-3,4.3289715E-1,-9.928964E-2,2.621536E-1,7.828865E-1,1.5661003E-1,2.3982118E-1,-7.891414E-2,7.7765405E-1,-3.916931E-2,2.3232481E-1,-1.4297675E-1,6.197945E-2,-1.4370629E-1,-1.2536046E-1,1.2487133E-1],"split_indices":[16,31,14,33,13,15,39,37,0,3,6,23,34,48,14,31,27,35,6,16,37,16,43,23,26,16,56,23,27,0,0,0,0,0,0,0,0,0,0,0,0,0,0,0,0,0,0,0,0,0,0,0,0,0,0,0,0],"split_type":[0,0,0,0,0,0,0,0,0,0,0,0,0,0,0,0,0,0,0,0,0,0,0,0,0,0,0,0,0,0,0,0,0,0,0,0,0,0,0,0,0,0,0,0,0,0,0,0,0,0,0,0,0,0,0,0,0],"sum_hessian":[1.1052E3,5.1677997E2,5.8842E2,3.9221997E2,1.2456E2,2.7E2,3.1841998E2,3.9096E2,1.26E0,1.0259999E1,1.14299995E2,1.0403999E2,1.6595999E2,1.9439999E1,2.9897998E2,5.1839996E1,3.3912E2,4.14E0,6.12E0,5.1659996E1,6.2639996E1,3.6539997E1,6.75E1,8.874E1,7.721999E1,9.9E0,9.54E0,1.5065999E2,1.4831999E2,7.2E0,4.464E1,3.2993997E2,9.179999E0,1.26E0,2.8799999E0,5.04E0,1.0799999E0,4.9859997E1,1.8E0,3.114E1,3.1499998E1,2.214E1,1.44E1,6.2639996E1,4.8599997E0,6.642E1,2.232E1,5.5079998E1,2.214E1,7.2E0,2.6999998E0,1.6199999E0,7.9199996E0,1.08899994E2,4.176E1,1.4165999E2,6.66E0],"tree_param":{"num_deleted":"0","num_feature":"57","num_nodes":"57","size_leaf_vector":"0"}},{"base_weights":[-2.3276655E-2,-2.4488848E-1,1.1867344E0,-4.1276443E-1,4.4377422E-1,1.784157E0,1.4062499E-1,-4.867497E-1,-1.5655921E-1,-7.042256E-2,1.3776902E0,1.1304454E0,3.581315E0,1.0016155E0,-3.9264417E-1,-4.9168342E-1,9.0163934E-1,-2.2172818E-1,1.5625E0,-2.5202003E-1,9.977452E-1,2.7252452E0,6.687612E-1,1.9572952E-1,1.9434307E0,3.885587E0,-3.6912754E-1,1.8481375E0,-8.474578E-2,6.730769E-1,-4.3922374E-1,-5.131024E-1,-1.2895665E-1,-3.001937E-1,7.6677316E-1,2.9041917E0,7.389161E-2,-3.45462E-1,1.0674157E0,-3.6159605E-1,1.9216418E0,-4.3227684E-2,3.7257283E0,1.5548505E0,-1.9148938E-1,-1.6542879E-1,1.1753731E0,2.5974932E0,6.575682E-1,4.0712075E0,-2.8846154E-1,3.3112567E-2,2.8699553E0,1.6346154E0,-4.1044778E-1,-7.399579E-2,-5.374593E-1],"categories":[],"categories_nodes":[],"categories_segments":[],"categories_sizes":[],"default_left":[1,1,1,1,1,1,1,1,1,1,1,1,1,1,1,1,0,1,1,1,1,1,1,1,1,1,0,1,1,0,1,0,0,0,0,0,0,0,0,0,0,0,0,0,0,0,0,0,0,0,0,0,0,0,0,0,0],"id":4,"left_children":[1,3,5,7,9,11,13,15,17,19,21,23,25,27,29,31,-1,33,35,37,39,41,43,45,47,49,-1,51,53,-1,55,-1,-1,-1,-1,-1,-1,-1,-1,-1,-1,-1,-1,-1,-1,-1,-1,-1,-1,-1,-1,-1,-1,-1,-1,-1,-1],"loss_changes":[2.9981726E2,1.0942527E2,1.0791879E2,1.4334457E1,8.926363E1,1.2527603E2,2.9778215E1,4.480789E0,1.9595327E1,2.3664423E1,6.1209526E1,6.206903E1,3.6172333E1,2.292663E1,2.293178E0,4.501999E0,0E0,1.313826E1,1.2567826E1,1.3186049E1,2.297436E1,6.2260193E1,3.4263985E1,1.4113185E1,3.5162918E1,2.2031708E1,0E0,2.5795525E1,7.2789164E0,0E0,1.3652277E0,0E0,0E0,0E0,0E0,0E0,0E0,0E0,0E0,0E0,0E0,0E0,0E0,0E0,0E0,0E0,0E0,0E0,0E0,0E0,0E0,0E0,0E0,0E0,0E0,0E0,0E0],"parents":[2147483647,0,0,1,1,2,2,3,3,4,4,5,5,6,6,7,7,8,8,9,9,10,10,11,11,12,12,13,13,14,14,15,15,17,17,18,18,19,19,20,20,21,21,22,22,23,23,24,24,25,25,27,27,28,28,30,30],"right_children":[2,4,6,8,10,12,14,16,18,20,22,24,26,28,30,32,-1,34,36,38,40,42,44,46,48,50,-1,52,54,-1,56,-1,-1,-1,-1,-1,-1,-1,-1,-1,-1,-1,-1,-1,-1,-1,-1,-1,-1,-1,-1,-1,-1,-1,-1,-1,-1],"split_conditions":[5.6557786E-1,7.975868E-1,1.3418515E0,-1.214759E-1,-1.15161315E-1,2.1317925E0,3.4495193E-1,4.1149797E0,1.9208627E0,-2.1204685E-1,2.3089878E-2,4.6959078E-1,1.5290681E0,-4.8807082E-1,-5.8305144E-1,5.558294E-1,2.6134273E-1,1.6205003E0,-4.959019E-3,1.2931409E0,-3.3772162E-1,-1.8608136E-2,4.2204916E-1,7.2054666E-1,8.7478316E-1,3.0008085E0,-1.0699267E-1,1.8263282E-1,8.241823E-1,1.9509327E-1,4.3189192E-1,-1.487242E-1,-3.7378453E-2,-8.7012E-2,2.2225139E-1,8.417883E-1,2.1417694E-2,-1.0013314E-1,3.093935E-1,-1.0480965E-1,5.5699337E-1,-1.25296675E-2,1.079913E0,4.5067784E-1,-5.5503745E-2,-4.7950007E-2,3.4068525E-1,7.528908E-1,1.9059803E-1,1.1800511E0,-8.36114E-2,9.597772E-3,8.318648E-1,4.7379795E-1,-1.1896946E-1,-2.1447891E-2,-1.5578412E-1],"split_indices":[4,1,7,16,26,4,53,6,26,50,15,1,45,35,15,1,0,0,4,33,4,13,31,29,33,40,0,1,33,0,11,0,0,0,0,0,0,0,0,0,0,0,0,0,0,0,0,0,0,0,0,0,0,0,0,0,0],"split_type":[0,0,0,0,0,0,0,0,0,0,0,0,0,0,0,0,0,0,0,0,0,0,0,0,0,0,0,0,0,0,0,0,0,0,0,0,0,0,0,0,0,0,0,0,0,0,0,0,0,0,0,0,0,0,0,0,0],"sum_hessian":[1.116E3,9.4392E2,1.7207999E2,7.5924E2,1.8468E2,1.09079994E2,6.2999996E1,5.8842E2,1.7081999E2,1.197E2,6.4979996E1,8.118E1,2.79E1,2.3759998E1,3.9239998E1,5.8698E2,1.4399999E0,1.6542E2,5.3999996E0,1.0296E2,1.674E1,2.1419998E1,4.3559998E1,3.834E1,4.2839996E1,2.5919998E1,1.9799999E0,1.2959999E1,1.0799999E1,1.0799999E0,3.816E1,5.5386E2,3.312E1,1.539E2,1.15199995E1,2.34E0,3.06E0,9.684E1,6.12E0,7.0199995E0,9.719999E0,5.9399996E0,1.548E1,2.106E1,2.2499998E1,2.8619999E1,9.719999E0,2.772E1,1.5119999E1,2.4839998E1,1.0799999E0,5.04E0,7.9199996E0,1.0799999E0,9.719999E0,8.46E0,2.9699999E1],"tree_param":{"num_deleted":"0","num_feature":"57","num_nodes":"57","size_leaf_vector":"0"}},{"base_weights":[-4.3476894E-3,9.468602E-1,-4.0096945E-1,2.3650928E0,7.0208794E-1,3.1198415E-1,-4.6037656E-1,3.080088E0,-8.3472645E-3,-2.738746E-3,1.1515864E0,-2.4756669E-1,2.1368716E0,-4.7182548E-1,3.9999998E-1,1.94508E-1,3.850975E0,-4.1044778E-1,1.9026549E0,-4.0385172E-1,6.7871094E-1,2.2330368E0,3.5656726E-1,-3.9130437E-1,2.7876105E0,2.833935E0,-1.8867926E-1,-2.3798136E-1,-5.0217927E-1,1.7567568E0,-3.424658E-1,-3.475936E-1,1.9026549E0,4.226006E0,3.6082473E-1,-4.9792534E-1,1.9230768E-1,1.0176991E0,-4.449649E-1,-3.9877304E-1,1.3367108E0,-1.6351122E-1,2.6508973E0,2.5195823E0,1.7382853E-1,-4.5414072E-1,1.1538461E0,7.013575E-1,3.694517E0,-3.7974685E-1,1.9230768E-1,1.6165414E0,-3.5939473E-1,6.730769E-1,-5.0527424E-1,2.7099237E0,-2.8846154E-1,-4.6623796E-1,1.9230768E-1],"categories":[],"categories_nodes":[],"categories_segments":[],"categories_sizes":[],"default_left":[1,1,1,1,1,1,1,1,1,1,1,1,1,1,1,1,1,1,0,1,1,1,1,1,0,1,1,1,1,1,1,0,0,0,0,0,0,0,0,0,0,0,0,0,0,0,0,0,0,0,0,0,0,0,0,0,0,0,0],"id":5,"left_children":[1,3,5,7,9,11,13,15,17,19,21,23,25,27,29,31,33,35,-1,37,39,41,43,45,-1,47,49,51,53,55,57,-1,-1,-1,-1,-1,-1,-1,-1,-1,-1,-1,-1,-1,-1,-1,-1,-1,-1,-1,-1,-1,-1,-1,-1,-1,-1,-1,-1],"loss_changes":[4.169005E2,1.11223785E2,3.3174225E1,8.053128E1,8.831314E1,6.2388298E1,7.2837677E0,8.0354614E1,9.986551E0,3.0215574E1,1.4553725E2,2.1708897E1,2.374823E1,4.929184E0,1.0675084E1,8.754496E0,3.60672E1,6.609944E-1,0E0,4.519408E0,2.9573042E1,7.245575E1,3.8804092E1,4.990223E0,0E0,1.7743477E1,3.816759E-1,1.9409176E1,2.6267853E0,7.9946156E0,5.728487E-1,0E0,0E0,0E0,0E0,0E0,0E0,0E0,0E0,0E0,0E0,0E0,0E0,0E0,0E0,0E0,0E0,0E0,0E0,0E0,0E0,0E0,0E0,0E0,0E0,0E0,0E0,0E0,0E0],"parents":[2147483647,0,0,1,1,2,2,3,3,4,4,5,5,6,6,7,7,8,8,9,9,10,10,11,11,12,12,13,13,14,14,15,15,16,16,17,17,19,19,20,20,21,21,22,22,23,23,25,25,26,26,27,27,28,28,29,29,30,30],"right_children":[2,4,6,8,10,12,14,16,18,20,22,24,26,28,30,32,34,36,-1,38,40,42,44,46,-1,48,50,52,54,56,58,-1,-1,-1,-1,-1,-1,-1,-1,-1,-1,-1,-1,-1,-1,-1,-1,-1,-1,-1,-1,-1,-1,-1,-1,-1,-1,-1,-1],"split_conditions":[-6.2687767E-1,-2.465679E-1,-8.8086975E-1,3.183784E-1,-8.0960155E-1,4.0241724E-1,2.628718E0,-8.60757E-1,-4.6199012E-1,-8.2978725E-1,-5.3701925E-1,1.4035602E0,9.0814066E-1,-1.1246071E0,-1.1229636E-1,2.079404E-1,6.0883296E-1,1.3449953E0,5.5148995E-1,-2.0629654E0,-9.2223513E-1,-7.018912E-1,-8.871854E-1,5.7063204E-1,8.0799687E-1,-4.5844558E-1,-6.329501E-2,-6.373334E-1,-1.2247765E0,-1.5805531E-2,1.8280149E0,-1.00751E-1,5.5148995E-1,1.2249199E0,1.0458608E-1,-1.4432508E-1,5.574093E-2,2.94983E-1,-1.2897435E-1,-1.15585506E-1,3.8744944E-1,-4.7394194E-2,7.6837015E-1,7.303081E-1,5.0384697E-2,-1.3163398E-1,3.344456E-1,2.0329048E-1,1.0708662E0,-1.1007071E-1,5.574093E-2,4.6855915E-1,-1.0417159E-1,1.9509327E-1,-1.4645518E-1,7.854791E-1,-8.36114E-2,-1.351404E-1,5.574093E-2],"split_indices":[16,15,28,10,10,49,56,22,15,16,26,56,33,27,26,48,27,2,0,5,22,21,34,44,0,4,2,28,32,21,2,0,0,0,0,0,0,0,0,0,0,0,0,0,0,0,0,0,0,0,0,0,0,0,0,0,0,0,0],"split_type":[0,0,0,0,0,0,0,0,0,0,0,0,0,0,0,0,0,0,0,0,0,0,0,0,0,0,0,0,0,0,0,0,0,0,0,0,0,0,0,0,0,0,0,0,0,0,0,0,0,0,0,0,0,0,0,0,0,0,0],"sum_hessian":[1.1030399E3,3.2418E2,7.7886E2,4.644E1,2.7774E2,5.9579998E1,7.1927997E2,3.546E1,1.098E1,1.0853999E2,1.692E2,4.626E1,1.332E1,7.1027997E2,9E0,7.74E0,2.772E1,9.719999E0,1.26E0,6.8579994E1,3.996E1,7.092E1,9.828E1,4.4999996E1,1.26E0,1.008E1,3.2399998E0,8.2619995E1,6.2766E2,2.6999998E0,6.2999997E0,6.4799995E0,1.26E0,2.4839998E1,2.8799999E0,8.639999E0,1.0799999E0,1.26E0,6.732E1,1.5299999E1,2.466E1,1.062E1,6.03E1,6.66E0,9.1619995E1,4.392E1,1.0799999E0,3.4199998E0,6.66E0,2.1599998E0,1.0799999E0,4.3199997E0,7.8299995E1,1.0799999E0,6.2657996E2,1.6199999E0,1.0799999E0,5.22E0,1.0799999E0],"tree_param":{"num_deleted":"0","num_feature":"57","num_nodes":"59","size_leaf_vector":"0"}},{"base_weights":[-2.9720834E-3,1.8235961E0,-2.6847368E-1,1.8538275E-1,3.6280942E0,-4.71839E-1,3.25859E-1,-3.250092E-1,1.4684016E0,2.848723E-1,4.153421E0,-5.3382266E-1,-2.243896E-1,-2.220727E-1,1.1339179E0,-4.110899E-1,1.2025317E0,-4.8302874E-1,2.3755047E0,-2.6905832E-1,2.3451328E0,4.2429576E0,-2.8846154E-1,-2.804079E-1,-5.454777E-1,1.4751959E0,-3.1580454E-1,4.952434E-1,-4.452837E-1,2.824116E0,6.4943254E-1,-5.4228383E-1,1.04895085E-1,2.1153846E0,-2.8846154E-1,1.2242563E0,3.4550562E0,-4.846939E-1,6.730769E-1,1.3274336E-1,4.3338137E0,1.3114754E0,-4.1890857E-1,-4.4896397E-1,-5.544448E-1,2.4895399E0,-1.546392E-1,-3.8002983E-1,1.0059172E0,-3.135889E-1,1.8069667E0,1.3761467E-1,-5.021162E-1,4.10859E0,1.0820895E0,2.751196E-1,2.466468E0],"categories":[],"categories_nodes":[],"categories_segments":[],"categories_sizes":[],"default_left":[1,1,1,1,1,1,1,1,1,1,1,1,1,1,1,1,1,0,1,1,0,1,0,1,1,1,1,1,1,1,1,0,0,0,0,0,0,0,0,0,0,0,0,0,0,0,0,0,0,0,0,0,0,0,0,0,0],"id":6,"left_children":[1,3,5,7,9,11,13,15,17,19,21,23,25,27,29,31,33,-1,35,37,-1,39,-1,41,43,45,47,49,51,53,55,-1,-1,-1,-1,-1,-1,-1,-1,-1,-1,-1,-1,-1,-1,-1,-1,-1,-1,-1,-1,-1,-1,-1,-1,-1,-1],"loss_changes":[5.389565E2,4.1626324E2,1.1743066E2,4.9577328E1,1.1659314E2,1.097467E1,1.1003885E2,7.6553903E0,3.924104E1,1.2248813E1,2.424353E1,1.55336E0,2.3245853E1,2.4013292E1,8.034834E1,3.5972843E0,4.911148E0,0E0,1.4238602E1,2.1384044E0,0E0,2.0635925E1,0E0,6.6036844E0,2.2816467E-1,1.30485935E1,1.2263197E1,3.84855E1,3.8410072E0,4.491533E1,5.325652E1,0E0,0E0,0E0,0E0,0E0,0E0,0E0,0E0,0E0,0E0,0E0,0E0,0E0,0E0,0E0,0E0,0E0,0E0,0E0,0E0,0E0,0E0,0E0,0E0,0E0,0E0],"parents":[2147483647,0,0,1,1,2,2,3,3,4,4,5,5,6,6,7,7,8,8,9,9,10,10,11,11,12,12,13,13,14,14,15,15,16,16,18,18,19,19,21,21,23,23,24,24,25,25,26,26,27,27,28,28,29,29,30,30],"right_children":[2,4,6,8,10,12,14,16,18,20,22,24,26,28,30,32,34,-1,36,38,-1,40,-1,42,44,46,48,50,52,54,56,-1,-1,-1,-1,-1,-1,-1,-1,-1,-1,-1,-1,-1,-1,-1,-1,-1,-1,-1,-1,-1,-1,-1,-1,-1,-1],"split_conditions":[-8.084748E-1,5.068002E-1,6.334835E-1,6.831136E-1,4.069619E-1,4.1254425E-1,2.7253854E-1,1.1275325E0,-2.1436775E-1,-4.872378E-2,2.7581787E-1,-1.192726E0,-8.196976E-1,-5.0234115E-1,-3.4213483E-1,1.9249076E-1,-8.348187E-1,-1.4000726E-1,1.1054549E0,-3.6308366E-1,6.7974347E-1,-1.7566609E0,-8.36114E-2,-5.168813E-1,-6.857276E-1,-7.8227735E-1,1.2499504E0,6.700781E-2,-6.5865225E-1,-1.1306067E0,1.0582623E0,-1.5718251E-1,3.040414E-2,6.1315024E-1,-8.36114E-2,3.5485417E-1,1.0014579E0,-1.4048992E-1,1.9509327E-1,3.8476042E-2,1.2561682E0,3.8013488E-1,-1.21421844E-1,-1.301335E-1,-1.6070741E-1,7.2160023E-1,-4.4822615E-2,-1.1015273E-1,2.9156798E-1,-9.089463E-2,5.237545E-1,3.9888006E-2,-1.4553982E-1,1.1908866E0,3.1364673E-1,7.9744205E-2,7.1491283E-1],"split_indices":[18,1,39,27,31,31,11,31,5,8,49,41,54,46,13,27,30,0,39,32,0,49,0,13,4,30,11,14,56,41,17,0,0,0,0,0,0,0,0,0,0,0,0,0,0,0,0,0,0,0,0,0,0,0,0,0,0],"split_type":[0,0,0,0,0,0,0,0,0,0,0,0,0,0,0,0,0,0,0,0,0,0,0,0,0,0,0,0,0,0,0,0,0,0,0,0,0,0,0,0,0,0,0,0,0,0,0,0,0,0,0,0,0,0,0,0,0],"sum_hessian":[1.10934E3,1.4004E2,9.693E2,7.3979996E1,6.606E1,7.2233997E2,2.4695999E2,5.346E1,2.0519999E1,9.179999E0,5.6879997E1,5.7672E2,1.4562E2,1.4759999E2,9.935999E1,5.13E1,2.1599998E0,6.66E0,1.386E1,7.9199996E0,1.26E0,5.58E1,1.0799999E0,2.646E1,5.5025995E2,6.66E0,1.3895999E2,3.4739998E1,1.1285999E2,2.106E1,7.8299995E1,4.0859997E1,1.044E1,1.0799999E0,1.0799999E0,7.74E0,6.12E0,6.8399997E0,1.0799999E0,1.26E0,5.4539997E1,1.4399999E0,2.5019999E1,5.112E1,4.9913998E2,3.7799997E0,2.8799999E0,1.332E2,5.7599998E0,2.196E1,1.278E1,9.9E0,1.0296E2,1.1339999E1,9.719999E0,6.588E1,1.2419999E1],"tree_param":{"num_deleted":"0","num_feature":"57","num_nodes":"57","size_leaf_vector":"0"}},{"base_weights":[2.8739236E-2,-3.2775143E-1,2.62722E0,-4.7403783E-1,2.9671037E-1,1.0771704E0,3.9151332E0,-5.1284486E-1,6.469499E-2,1.6579292E0,2.9389195E-2,7.692306E-2,2.1009772E0,4.2305226E0,1.8531469E0,-2.3496893E-1,-5.356777E-1,-2.8350517E-1,8.8957053E-1,9.907834E-1,2.96334E0,-1.806671E-1,1E0,-1.3422821E-1,1.7567568E0,9.7238207E-1,3.3240223E0,1.5976331E0,4.470152E0,-7.518799E-2,3.0337079E0,-5.196305E-1,5.712452E-1,-2.3917998E-1,-5.426974E-1,-5.332799E-1,1.5477791E-1,1.6395112E0,-2.1390377E-1,2.6501305E0,7.978722E-2,1.3274336E-1,3.364486E0,-2.3712315E-1,2.1518986E0,2.029703E0,-4.7106344E-2,6.460674E-1,-3.631757E-1,1.3274336E-1,2.5409837E0,1.6437178E0,-3.254438E-1,3.6983156E0,-3.0973452E-1,-4.0540543E-1,3.0295568E0,4.5636363E0,8.015267E-1,6.730769E-1,-4.2452833E-1,8.1967205E-2,3.7676058E0],"categories":[],"categories_nodes":[],"categories_segments":[],"categories_sizes":[],"default_left":[1,1,1,1,1,1,1,1,1,1,1,1,1,1,1,1,1,1,1,1,1,1,1,1,1,1,1,1,1,1,1,0,0,0,0,0,0,0,0,0,0,0,0,0,0,0,0,0,0,0,0,0,0,0,0,0,0,0,0,0,0,0,0],"id":7,"left_children":[1,3,5,7,9,11,13,15,17,19,21,23,25,27,29,31,33,35,37,39,41,43,45,47,49,51,53,55,57,59,61,-1,-1,-1,-1,-1,-1,-1,-1,-1,-1,-1,-1,-1,-1,-1,-1,-1,-1,-1,-1,-1,-1,-1,-1,-1,-1,-1,-1,-1,-1,-1,-1],"loss_changes":[1.0290734E3,8.938621E1,2.633308E2,1.6589539E1,6.7648E1,6.353492E1,3.9517212E1,4.5617065E0,1.5790897E1,2.3643814E1,3.209242E1,1.1763524E1,3.9143692E1,3.2214844E1,2.6271454E1,1.3580191E1,1.289566E0,4.3300543E0,1.3839604E1,3.2591553E1,1.0703827E1,1.7566418E1,3.0285452E1,5.558308E0,4.375002E0,1.5677729E1,2.0621979E1,2.0617218E1,1.5760498E1,1.6763834E0,1.5115067E1,0E0,0E0,0E0,0E0,0E0,0E0,0E0,0E0,0E0,0E0,0E0,0E0,0E0,0E0,0E0,0E0,0E0,0E0,0E0,0E0,0E0,0E0,0E0,0E0,0E0,0E0,0E0,0E0,0E0,0E0,0E0,0E0],"parents":[2147483647,0,0,1,1,2,2,3,3,4,4,5,5,6,6,7,7,8,8,9,9,10,10,11,11,12,12,13,13,14,14,15,15,16,16,17,17,18,18,19,19,20,20,21,21,22,22,23,23,24,24,25,25,26,26,27,27,28,28,29,29,30,30],"right_children":[2,4,6,8,10,12,14,16,18,20,22,24,26,28,30,32,34,36,38,40,42,44,46,48,50,52,54,56,58,60,62,-1,-1,-1,-1,-1,-1,-1,-1,-1,-1,-1,-1,-1,-1,-1,-1,-1,-1,-1,-1,-1,-1,-1,-1,-1,-1,-1,-1,-1,-1,-1,-1],"split_conditions":[1.2904484E0,5.0824815E-1,7.718018E-1,1.1088711E0,-1.3347261E0,-3.238242E-2,1.8082747E0,-1.0024302E0,3.739677E-1,8.845128E-1,1.2709413E0,1.6979926E0,-2.0434052E-2,-1.2968507E-1,-2.2717291E-1,-1.3511966E-3,-1.5947016E0,-3.526351E-1,-1.5334764E-1,-6.308585E-1,8.2257354E-1,2.4970474E0,-8.504191E-2,5.5361736E-1,-1.9204777E-1,-7.173244E-1,2.132547E-1,7.9440194E-1,4.6529356E-2,7.562674E-1,1.7138247E0,-1.5061638E-1,1.6557705E-1,-6.9327004E-2,-1.573024E-1,-1.545727E-1,4.486282E-2,4.75217E-1,-6.2000617E-2,7.681479E-1,2.3126554E-2,3.8476042E-2,9.752059E-1,-6.873082E-2,6.2373394E-1,5.883152E-1,-1.3653909E-2,1.8726447E-1,-1.0526751E-1,3.8476042E-2,7.365114E-1,4.764363E-1,-9.433082E-2,1.0719674E0,-8.977744E-2,-1.1750792E-1,8.7812567E-1,1.322783E0,2.3232481E-1,1.9509327E-1,-1.2305075E-1,2.3758428E-2,1.0920513E0],"split_indices":[7,7,16,33,23,28,21,23,15,17,33,33,14,14,52,7,27,9,27,1,7,3,47,37,55,27,31,33,23,6,7,0,0,0,0,0,0,0,0,0,0,0,0,0,0,0,0,0,0,0,0,0,0,0,0,0,0,0,0,0,0,0,0],"split_type":[0,0,0,0,0,0,0,0,0,0,0,0,0,0,0,0,0,0,0,0,0,0,0,0,0,0,0,0,0,0,0,0,0,0,0,0,0,0,0,0,0,0,0,0,0,0,0,0,0,0,0,0,0,0,0,0,0,0,0,0,0,0,0],"sum_hessian":[1.10898E3,9.7595996E2,1.3301999E2,7.9092E2,1.8504E2,6.1199997E1,7.182E1,7.3781995E2,5.31E1,2.9519999E1,1.5551999E2,3.1499998E1,2.9699999E1,6.1379997E1,1.044E1,5.6879997E1,6.8093994E2,3.78E1,1.5299999E1,2.0699999E1,8.82E0,1.2851999E2,2.6999998E1,2.88E1,2.6999998E0,1.638E1,1.332E1,5.7599998E0,5.562E1,4.3199997E0,6.12E0,4.23E1,1.4579999E1,1.656E1,6.6437994E2,2.3939999E1,1.386E1,8.82E0,6.4799995E0,6.66E0,1.4039999E1,1.26E0,7.5599995E0,1.2635999E2,2.1599998E0,1.3139999E1,1.386E1,6.12E0,2.2679998E1,1.26E0,1.4399999E0,1.062E1,5.7599998E0,1.2059999E1,1.26E0,2.6999998E0,3.06E0,5.3999996E1,1.6199999E0,1.0799999E0,3.2399998E0,1.4399999E0,4.68E0],"tree_param":{"num_deleted":"0","num_feature":"57","num_nodes":"63","size_leaf_vector":"0"}},{"base_weights":[-1.523046E-2,-3.1940854E-1,8.416386E-1,-3.8025674E-1,2.8202423E-1,2.7319589E0,5.4862154E-1,-4.2963517E-1,7.137084E-2,1.0801394E0,-6.30564E-2,3.3692307E0,-4.7945207E-1,1.4104708E-1,1.3274235E0,-4.8145375E-1,-2.271089E-1,1.9090909E0,-7.454131E-2,1.6370559E0,-1.2195124E-1,-2.5971195E-1,9.3406594E-1,8.5561496E-1,3.9623368E0,-3.2296655E-1,4.4558358E-1,1.9145146E-1,2.4848626E0,-5.0071067E-1,2.61669E-1,1.3028169E0,-2.9025522E-1,2.6415095E0,-3.0973452E-1,-2.5870818E-1,8.6919105E-1,-2.419355E-1,2.2881355E0,1.1538461E0,-4.7752813E-1,1.3087249E0,-3.6040148E-1,-4.3933058E-1,1.9924812E0,-4.5112783E-1,2.78481E0,-6.3291155E-2,4.3294215E0,-4.1598698E-1,5.9270513E-1,9.2979836E-1,-9.4108045E-2,6.6192967E-1,-4.7445258E-1,7.236842E-1,3.0805538E0],"categories":[],"categories_nodes":[],"categories_segments":[],"categories_sizes":[],"default_left":[1,1,1,1,1,1,1,1,1,1,1,1,0,1,1,1,1,1,1,1,1,1,1,1,1,1,1,1,1,0,0,0,0,0,0,0,0,0,0,0,0,0,0,0,0,0,0,0,0,0,0,0,0,0,0,0,0],"id":8,"left_children":[1,3,5,7,9,11,13,15,17,19,21,23,-1,25,27,29,31,33,35,37,39,41,43,45,47,49,51,53,55,-1,-1,-1,-1,-1,-1,-1,-1,-1,-1,-1,-1,-1,-1,-1,-1,-1,-1,-1,-1,-1,-1,-1,-1,-1,-1,-1,-1],"loss_changes":[2.8948105E2,3.0102867E1,1.5967386E2,1.6639305E1,2.0966528E1,8.102121E1,8.017709E1,6.93779E0,2.0054804E1,1.5570536E1,1.0815741E1,4.5062073E1,0E0,2.3787745E1,1.137294E2,7.769829E0,1.3777842E1,9.756266E0,1.2349449E1,1.9833942E1,4.270875E0,7.707798E0,1.4103334E1,2.01131E1,3.8725006E1,5.9431405E0,2.6596474E1,1.4387192E1,4.2819794E1,0E0,0E0,0E0,0E0,0E0,0E0,0E0,0E0,0E0,0E0,0E0,0E0,0E0,0E0,0E0,0E0,0E0,0E0,0E0,0E0,0E0,0E0,0E0,0E0,0E0,0E0,0E0,0E0],"parents":[2147483647,0,0,1,1,2,2,3,3,4,4,5,5,6,6,7,7,8,8,9,9,10,10,11,11,13,13,14,14,15,15,16,16,17,17,18,18,19,19,20,20,21,21,22,22,23,23,24,24,25,25,26,26,27,27,28,28],"right_children":[2,4,6,8,10,12,14,16,18,20,22,24,-1,26,28,30,32,34,36,38,40,42,44,46,48,50,52,54,56,-1,-1,-1,-1,-1,-1,-1,-1,-1,-1,-1,-1,-1,-1,-1,-1,-1,-1,-1,-1,-1,-1,-1,-1,-1,-1,-1,-1],"split_conditions":[2.9686254E-1,7.4122846E-1,-8.2012534E-1,6.960275E-1,-4.7031707E-1,8.9698553E-1,1.8990535E-1,-1.775857E-1,-8.4496504E-1,7.408283E-1,1.1063665E0,-2.0430702E-1,-1.3897055E-1,6.1443285E-3,4.3878788E-1,1.0943465E0,-1.6469531E0,7.8302383E-1,9.3215716E-1,-5.828078E-1,-1.7398751E-1,-7.8281575E-1,-2.974026E-3,-4.484682E-1,-6.629104E-1,1.4017642E0,4.2269132E-1,-9.741424E-2,-6.062546E-1,-1.4513242E-1,7.584551E-2,3.776252E-1,-8.413131E-2,7.656491E-1,-8.977744E-2,-7.498731E-2,2.519375E-1,-7.01257E-2,6.632226E-1,3.344456E-1,-1.384129E-1,3.7933764E-1,-1.044634E-1,-1.2734123E-1,5.775264E-1,-1.3076068E-1,8.071852E-1,-1.8345121E-2,1.2548952E0,-1.2057502E-1,1.7179728E-1,2.6950473E-1,-2.7277486E-2,1.9186221E-1,-1.3752143E-1,2.0976193E-1,8.929073E-1],"split_indices":[18,8,15,30,19,16,31,18,13,17,45,25,0,30,10,26,15,23,45,14,14,25,1,14,28,24,4,16,49,0,0,0,0,0,0,0,0,0,0,0,0,0,0,0,0,0,0,0,0,0,0,0,0,0,0,0,0],"split_type":[0,0,0,0,0,0,0,0,0,0,0,0,0,0,0,0,0,0,0,0,0,0,0,0,0,0,0,0,0,0,0,0,0,0,0,0,0,0,0,0,0,0,0,0,0,0,0,0,0,0,0,0,0,0,0,0,0],"sum_hessian":[1.10862E3,8.1863995E2,2.8997998E2,7.4375995E2,7.488E1,3.78E1,2.5218E2,6.705E2,7.3259995E1,2.196E1,5.292E1,3.1499998E1,6.2999997E0,1.6631999E2,8.585999E1,5.328E2,1.377E2,4.5E0,6.8759995E1,1.4759999E1,7.2E0,4.482E1,8.099999E0,6.4799995E0,2.5019999E1,6.588E1,1.00439995E2,4.392E1,4.194E1,5.1966E2,1.3139999E1,4.68E0,1.3301999E2,3.2399998E0,1.26E0,5.814E1,1.062E1,3.9599998E0,1.0799999E1,1.0799999E0,6.12E0,1.9799999E0,4.2839996E1,3.7799997E0,4.3199997E0,4.3199997E0,2.1599998E0,2.1599998E0,2.2859999E1,6.03E1,5.58E0,5.2559998E1,4.7879997E1,2.574E1,1.8179998E1,1.116E1,3.0779999E1],"tree_param":{"num_deleted":"0","num_feature":"57","num_nodes":"57","size_leaf_vector":"0"}},{"base_weights":[-3.8979847E-3,2.9671428E-1,-2.0266002E-1,9.8888004E-1,9.0652205E-2,3.094032E-1,-2.8320926E-1,2.805851E0,6.622058E-1,1.0313011E-2,2.4729242E0,1.8882602E0,1.8022638E-2,1.9129518E-1,-3.347724E-1,-6.3291155E-2,3.2919254E0,1.0168067E0,-1.1000712E-1,-3.648069E-1,1.7882186E-1,-3.8922158E-1,3.283753E0,3.3112567E-2,2.912088E0,8.428246E-1,-2.1924086E-1,-2.3780857E-1,7.5928915E-1,-3.5244972E-1,5.9999996E-1,-2.8846154E-1,1.9230768E-1,4.0654206E0,1.4285715E0,-1.2562816E-1,1.5517242E0,9.276018E-1,-2.9079163E-1,-4.4439766E-1,5.607477E-1,4.6642816E-1,-3.2219574E-1,3.964497E0,6.375839E-1,9.0163934E-1,-4.3478262E-1,3.3418367E0,1.3274336E-1,8.474574E-2,2.0414202E0,-2.9010242E-1,1.0227273E0,-3.4449455E-1,8.860759E-1,1.368715E0,-6.993009E-2,-1.577207E-1,-4.3804085E-1,1.7741935E0,-4.6357617E-1],"categories":[],"categories_nodes":[],"categories_segments":[],"categories_sizes":[],"default_left":[1,1,1,1,1,1,1,1,1,1,1,1,1,1,1,1,1,1,1,1,1,0,1,1,1,1,1,1,1,1,1,0,0,0,0,0,0,0,0,0,0,0,0,0,0,0,0,0,0,0,0,0,0,0,0,0,0,0,0,0,0],"id":9,"left_children":[1,3,5,7,9,11,13,15,17,19,21,23,25,27,29,31,33,35,37,39,41,-1,43,45,47,49,51,53,55,57,59,-1,-1,-1,-1,-1,-1,-1,-1,-1,-1,-1,-1,-1,-1,-1,-1,-1,-1,-1,-1,-1,-1,-1,-1,-1,-1,-1,-1,-1,-1],"loss_changes":[6.597309E1,6.259299E1,2.7502392E1,5.792508E1,6.50011E1,4.1747547E1,1.4128616E1,2.1183388E1,2.3847214E1,2.0904644E1,2.6991577E1,2.6760403E1,1.53864E1,1.4068207E1,8.785248E0,2.3734176E-1,1.2756149E1,3.655589E1,5.555845E0,7.8013926E0,3.3027184E1,0E0,1.3216225E1,2.8465493E0,1.0425621E1,1.5782538E1,5.6757317E0,4.288417E0,1.2608124E1,8.428791E0,1.3310916E1,0E0,0E0,0E0,0E0,0E0,0E0,0E0,0E0,0E0,0E0,0E0,0E0,0E0,0E0,0E0,0E0,0E0,0E0,0E0,0E0,0E0,0E0,0E0,0E0,0E0,0E0,0E0,0E0,0E0,0E0],"parents":[2147483647,0,0,1,1,2,2,3,3,4,4,5,5,6,6,7,7,8,8,9,9,10,10,11,11,12,12,13,13,14,14,15,15,16,16,17,17,18,18,19,19,20,20,22,22,23,23,24,24,25,25,26,26,27,27,28,28,29,29,30,30],"right_children":[2,4,6,8,10,12,14,16,18,20,22,24,26,28,30,32,34,36,38,40,42,-1,44,46,48,50,52,54,56,58,60,-1,-1,-1,-1,-1,-1,-1,-1,-1,-1,-1,-1,-1,-1,-1,-1,-1,-1,-1,-1,-1,-1,-1,-1,-1,-1,-1,-1,-1,-1],"split_conditions":[-3.9809483E-1,-8.8920474E-1,-2.4764985E-1,-1.4676714E0,3.9715683E-1,-1.0916367E0,-6.7267E-1,-2.6799712E-1,8.2984054E-1,-6.421487E-1,-1.0602783E-1,3.8652563E-1,-3.12237E-1,2.2937009E-1,6.8256646E-1,-9.351282E-1,5.694057E-1,4.287324E-1,1.9863868E-1,1.0082461E0,-1.0933106E-1,-1.1281699E-1,-2.6190752E-1,-1.8174905E-1,6.006074E-1,1.0551782E-1,3.3724122E0,3.2052523E-1,2.8206193E-1,-4.5719904E-1,1.0656662E-1,-8.36114E-2,5.574093E-2,1.1783738E0,4.1407552E-1,-3.641368E-2,4.497717E-1,2.6886803E-1,-8.428679E-2,-1.2880993E-1,1.6253431E-1,1.3519554E-1,-9.3389355E-2,1.1491208E0,1.8480551E-1,2.6134273E-1,-1.2602298E-1,9.686409E-1,3.8476042E-2,2.4563795E-2,5.9171146E-1,-8.4087014E-2,2.9644042E-1,-9.985273E-2,2.5683165E-1,3.9672598E-1,-2.0269437E-2,-4.5715794E-2,-1.2696739E-1,5.1425505E-1,-1.3436888E-1],"split_indices":[40,29,13,37,13,29,48,5,11,14,37,23,42,31,13,1,43,31,43,10,4,0,30,55,5,10,10,13,51,49,16,0,0,0,0,0,0,0,0,0,0,0,0,0,0,0,0,0,0,0,0,0,0,0,0,0,0,0,0,0,0],"split_type":[0,0,0,0,0,0,0,0,0,0,0,0,0,0,0,0,0,0,0,0,0,0,0,0,0,0,0,0,0,0,0,0,0,0,0,0,0,0,0,0,0,0,0,0,0,0,0,0,0,0,0,0,0,0,0,0,0,0,0,0,0],"sum_hessian":[1.1021399E3,4.3847998E2,6.6366E2,9.971999E1,3.3875998E2,8.982E1,5.7383997E2,1.4039999E1,8.567999E1,3.2868E2,1.008E1,1.3139999E1,7.668E1,5.5979996E1,5.1786E2,2.1599998E0,1.1879999E1,5.8499996E1,2.7179998E1,1.0152E2,2.2715999E2,2.34E0,7.74E0,5.04E0,8.099999E0,1.656E1,6.012E1,3.2219997E1,2.3759998E1,5.0886E2,9E0,1.0799999E0,1.0799999E0,7.5599995E0,4.3199997E0,1.89E1,3.96E1,3.4199998E0,2.3759998E1,9.396E1,7.5599995E0,1.4436E2,8.2799995E1,5.7599998E0,1.9799999E0,1.4399999E0,3.6E0,6.8399997E0,1.26E0,1.0799999E1,5.7599998E0,5.76E1,2.52E0,3.006E1,2.1599998E0,1.332E1,1.044E1,1.5623999E2,3.5262E2,3.9599998E0,5.04E0],"tree_param":{"num_deleted":"0","num_feature":"57","num_nodes":"61","size_leaf_vector":"0"}},{"base_weights":[1.3351969E-2,-3.864049E-1,3.1650782E-1,-4.4121858E-1,7.0760894E-1,6.226803E-1,-1.8755512E-1,-4.5615482E-1,1.489352E0,2.044821E-1,1.9460565E0,3.2748866E-1,1.110311E0,-5.2225876E-1,6.1245732E-2,-1.5955396E-1,-5.310991E-1,-2.8584298E-1,2.3474522E0,-2.8809997E-1,1.2150843E0,2.3265347E0,1.3538818E-1,1.9076313E0,1.6977426E-1,-5.5791512E-2,1.3364503E0,-3.388917E-2,-5.4205006E-1,-2.3308685E-1,9.5710087E-1,-4.5448345E-1,6.841147E-1,7.131574E-1,-5.393952E-1,-4.348881E-1,6.41035E-1,-3.351706E-1,1.8210919E0,-4.4746017E-1,2.4530523E0,2.1688976E0,2.1376327E-2,1.2434062E0,-4.805157E-1,1.6802067E0,3.1106475E-1,-4.056064E-1,7.1959126E-1,-3.273997E-1,1.3454068E0,2.5945113E0,3.4901845E-1],"categories":[],"categories_nodes":[],"categories_segments":[],"categories_sizes":[],"default_left":[1,1,1,1,1,1,1,1,1,1,1,1,1,1,1,1,1,0,0,1,1,0,0,1,1,1,1,1,0,1,1,0,0,0,0,0,0,0,0,0,0,0,0,0,0,0,0,0,0,0,0,0,0],"id":10,"left_children":[1,3,5,7,9,11,13,15,17,19,21,23,25,27,29,31,33,-1,-1,35,37,-1,-1,39,41,43,45,47,-1,49,51,-1,-1,-1,-1,-1,-1,-1,-1,-1,-1,-1,-1,-1,-1,-1,-1,-1,-1,-1,-1,-1,-1],"loss_changes":[1.3242563E2,2.8574043E1,9.602123E1,1.3638596E1,1.385265E1,5.531859E1,1.965086E1,9.845528E0,6.2840347E0,9.002347E0,4.1559143E0,6.0080112E1,3.843007E1,9.5358276E-1,3.609223E1,2.3088205E1,4.0615005E0,0E0,0E0,1.9827358E0,6.141242E0,0E0,0E0,2.922712E1,6.565969E1,1.4163588E1,4.2432724E1,1.6875627E0,0E0,1.580357E1,3.2785057E1,0E0,0E0,0E0,0E0,0E0,0E0,0E0,0E0,0E0,0E0,0E0,0E0,0E0,0E0,0E0,0E0,0E0,0E0,0E0,0E0,0E0,0E0],"parents":[2147483647,0,0,1,1,2,2,3,3,4,4,5,5,6,6,7,7,8,8,9,9,10,10,11,11,12,12,13,13,14,14,15,15,16,16,19,19,20,20,23,23,24,24,25,25,26,26,27,27,29,29,30,30],"right_children":[2,4,6,8,10,12,14,16,18,20,22,24,26,28,30,32,34,-1,-1,36,38,-1,-1,40,42,44,46,48,-1,50,52,-1,-1,-1,-1,-1,-1,-1,-1,-1,-1,-1,-1,-1,-1,-1,-1,-1,-1,-1,-1,-1,-1],"split_conditions":[-6.6395044E-2,1.1509371E0,4.227227E-1,3.800651E0,4.66744E-1,-2.1719326E-1,-3.9763817E-1,-1.1751109E0,-5.647026E-1,-2.5242162E-1,-1.2164425E0,-1.8156409E0,-1.3146274E-1,-1.1660182E0,5.3163195E-1,-7.249379E-1,-2.3043547E0,-8.285241E-2,6.804157E-1,1.7274411E0,4.695221E-2,6.7435277E-1,3.924265E-2,-4.1252217E-1,-2.5292535E0,-6.12381E-1,-2.6843542E-2,1.2577453E-1,-1.5711476E-1,1.7095532E0,-3.047628E-1,-1.3173333E-1,1.982926E-1,2.0671071E-1,-1.5634525E-1,-1.2605356E-1,1.8580583E-1,-9.7150154E-2,5.2784866E-1,-1.296976E-1,7.110242E-1,6.2866116E-1,6.1959894E-3,3.6040482E-1,-1.3927884E-1,4.870127E-1,9.016301E-2,-1.1756617E-1,2.0857558E-1,-9.489774E-2,3.8997E-1,7.520265E-1,1.01164E-1],"split_indices":[27,23,1,26,25,4,19,7,23,27,7,25,15,13,16,16,25,0,0,53,15,0,0,15,15,10,7,36,0,27,7,0,0,0,0,0,0,0,0,0,0,0,0,0,0,0,0,0,0,0,0,0,0],"split_type":[0,0,0,0,0,0,0,0,0,0,0,0,0,0,0,0,0,0,0,0,0,0,0,0,0,0,0,0,0,0,0,0,0,0,0,0,0,0,0,0,0,0,0,0,0,0,0,0,0,0,0,0,0],"sum_hessian":[1.090714E3,4.7029037E2,6.2042365E2,4.4841977E2,2.1870602E1,3.85831E2,2.3459265E2,4.45735E2,2.6847966E0,1.638088E1,5.4897203E0,2.4138065E2,1.4445036E2,9.9559456E1,1.3503319E2,9.05402E1,3.551948E2,1.0921986E0,1.5925978E0,1.1493639E1,4.8872423E0,4.301034E0,1.1886865E0,2.0898891E1,2.2048175E2,2.3585165E1,1.208652E2,3.9831603E0,9.5576294E1,1.0219644E2,3.2836754E1,6.742951E1,2.3110691E1,1.7898557E0,3.5340494E2,1.03849325E1,1.1087062E0,1.4991415E0,3.3881006E0,3.9636633E0,1.6935228E1,1.4294869E1,2.0618687E2,5.3358035E0,1.8249363E1,9.004079E1,3.0824411E1,2.9764614E0,1.0066988E0,9.71825E1,5.013935E0,8.0076065E0,2.4829147E1],"tree_param":{"num_deleted":"0","num_feature":"57","num_nodes":"53","size_leaf_vector":"0"}},{"base_weights":[-1.7012965E-2,1.2756069E0,-4.2842662E-1,1.4932985E0,-1.2669183E-1,9.1032374E-1,-4.6725872E-1,1.5784776E0,9.3072194E-1,1.7468184E0,-3.9903903E-1,1.7015496E0,-2.4054219E-1,-8.429486E-2,-5.2103144E-1,1.4970893E0,2.12691E0,1.3895986E0,-8.814505E-2,-4.81978E-1,7.757758E-1,2.0621507E0,-3.76779E-1,9.4915205E-1,-4.990746E-1,7.465863E-1,-3.8433105E-1,1.1507363E0,-5.2508163E-1,2.1561632E-1,1.5099903E0,-2.8701305E-1,2.2597141E0,1.5352793E0,-6.157995E-2,9.7270364E-1,-3.169639E-1,-5.43961E-1,6.576735E-1,6.0358185E-1,2.1468756E0,1.52933E0,-3.445627E-1,6.578023E-1,-4.2099604E-1,1.5400743E-1,-5.3038186E-1],"categories":[],"categories_nodes":[],"categories_segments":[],"categories_sizes":[],"default_left":[1,1,1,1,1,1,1,1,1,0,1,1,1,1,1,1,1,1,1,1,0,1,0,0,0,1,1,0,1,0,0,0,0,0,0,0,0,0,0,0,0,0,0,0,0,0,0],"id":11,"left_children":[1,3,5,7,9,11,13,15,17,-1,19,21,23,25,27,29,31,33,35,37,-1,39,-1,-1,-1,41,43,-1,45,-1,-1,-1,-1,-1,-1,-1,-1,-1,-1,-1,-1,-1,-1,-1,-1,-1,-1],"loss_changes":[5.854264E2,8.132474E1,4.3835373E1,9.559448E0,1.9391113E1,2.2151897E1,1.6680649E1,5.673645E0,1.5411236E1,0E0,3.5700188E0,1.147411E1,3.7352166E0,2.5512497E1,5.424881E0,2.5870667E0,8.107491E0,4.873657E0,3.0014827E0,2.5655937E0,0E0,2.2634506E-1,0E0,0E0,0E0,2.3745655E1,3.1427631E0,0E0,2.6405334E0,0E0,0E0,0E0,0E0,0E0,0E0,0E0,0E0,0E0,0E0,0E0,0E0,0E0,0E0,0E0,0E0,0E0,0E0],"parents":[2147483647,0,0,1,1,2,2,3,3,4,4,5,5,6,6,7,7,8,8,10,10,11,11,12,12,13,13,14,14,15,15,16,16,17,17,18,18,19,19,21,21,25,25,26,26,28,28],"right_children":[2,4,6,8,10,12,14,16,18,-1,20,22,24,26,28,30,32,34,36,38,-1,40,-1,-1,-1,42,44,-1,46,-1,-1,-1,-1,-1,-1,-1,-1,-1,-1,-1,-1,-1,-1,-1,-1,-1,-1],"split_conditions":[-8.059597E-1,-5.225365E-1,-8.6277544E-1,-8.263995E-1,-1.7207737E0,-1.8083462E-1,-6.968254E-1,-1.2921562E0,-4.9660248E-1,5.063203E-1,1.5425155E0,-5.9663427E-1,-1.0618991E0,-7.5264156E-1,-1.2627858E0,-1.8459901E0,-1.3879763E0,-7.3036826E-1,-2.4568505E0,3.3475552E0,2.2486083E-1,-8.022975E-1,-1.0921047E-1,2.7511445E-1,-1.4465821E-1,-4.112745E-2,-9.278718E-1,3.3354422E-1,-1.8763186E0,6.2497005E-2,4.37675E-1,-8.319155E-2,6.549846E-1,4.450051E-1,-1.7849125E-2,2.8194094E-1,-9.187289E-2,-1.5766865E-1,1.9062854E-1,1.7494993E-1,6.2227803E-1,4.4328067E-1,-9.9872485E-2,1.9066587E-1,-1.22026905E-1,4.4639494E-2,-1.537327E-1],"split_indices":[16,10,6,16,3,23,16,3,21,0,19,16,10,22,30,33,11,9,23,18,0,16,0,0,0,23,10,0,35,0,0,0,0,0,0,0,0,0,0,0,0,0,0,0,0,0,0],"split_type":[0,0,0,0,0,0,0,0,0,0,0,0,0,0,0,0,0,0,0,0,0,0,0,0,0,0,0,0,0,0,0,0,0,0,0,0,0,0,0,0,0,0,0,0,0,0,0],"sum_hessian":[1.0988088E3,2.6478397E2,8.3402484E2,2.2914656E2,3.563741E1,2.2877357E1,8.111475E2,1.9744574E2,3.1700817E1,3.835892E0,3.1801517E1,1.3273362E1,9.603996E0,1.0018783E2,7.1095966E2,1.751787E2,2.2267046E1,2.160604E1,1.0094778E1,3.025531E1,1.5462074E0,1.1317499E1,1.9558625E0,1.2375996E0,8.366396E0,2.6185312E1,7.400252E1,1.0340179E0,7.0992566E2,1.9225512E0,1.7325615E2,1.1006074E0,2.116644E1,1.9582264E1,2.0237744E0,1.2142595E0,8.880519E0,2.9190407E1,1.0649036E0,1.0673141E0,1.0250185E1,1.5013612E1,1.1171701E1,1.9393463E0,7.206317E1,5.280686E0,7.0464496E2],"tree_param":{"num_deleted":"0","num_feature":"57","num_nodes":"47","size_leaf_vector":"0"}},{"base_weights":[3.6668207E-3,1.9332132E-1,-4.0731543E-1,-1.7755675E-1,4.1222635E-1,-1.5459664E-1,-4.615471E-1,-2.8294688E-1,5.9780824E-1,-1.05472244E-1,6.323005E-1,-2.9440892E-1,6.032022E-1,-5.921419E-2,-4.766439E-1,-4.171695E-1,-8.912567E-2,1.7100121E0,-2.2735439E-1,-4.2945322E-1,2.15385E-1,1.144612E0,2.0048429E-1,5.31506E-1,-3.747585E-1,1.4345874E0,-4.394788E-1,1.4173287E0,-4.852414E-1,-2.4040648E-1,-4.9805853E-1,-4.361187E-1,5.082558E-1,-2.7732226E-1,3.8998452E-1,-3.7859342E-1,2.0803883E0,6.2518626E-1,-4.0564722E-1,-4.8482785E-1,9.6347094E-1,7.606981E-1,-1.1205405E-1,4.978553E-1,1.7384126E0,4.5959833E-1,-3.5528395E-1,-3.866313E-1,1.4720819E0,-6.442237E-2,-4.796216E-1,-2.9481462E-1,1.9306611E0,4.2195103E-1,-4.6200344E-1,-2.1106231E-1,-5.1260114E-1],"categories":[],"categories_nodes":[],"categories_segments":[],"categories_sizes":[],"default_left":[1,1,1,1,1,1,1,1,1,1,1,1,1,1,1,1,1,1,1,1,1,1,1,1,1,1,0,0,0,1,1,0,0,0,0,0,0,0,0,0,0,0,0,0,0,0,0,0,0,0,0,0,0,0,0,0,0],"id":12,"left_children":[1,3,5,7,9,11,13,15,17,19,21,23,25,27,29,31,33,35,37,39,41,43,45,47,49,51,-1,-1,-1,53,55,-1,-1,-1,-1,-1,-1,-1,-1,-1,-1,-1,-1,-1,-1,-1,-1,-1,-1,-1,-1,-1,-1,-1,-1,-1,-1],"loss_changes":[8.41092E1,6.0017464E1,4.5984955E0,2.2620193E1,5.2999763E1,6.7150717E0,1.6726418E0,6.2727623E0,3.0855263E1,1.45881E1,7.192427E1,3.7007551E0,9.246277E0,7.776703E0,1.244957E0,2.7299366E0,9.171092E0,1.1816097E1,3.2845788E0,5.844737E0,1.2713947E1,5.634256E1,2.5824587E1,4.966189E0,1.553061E0,5.5144415E0,0E0,0E0,0E0,3.7695239E0,9.2022324E-1,0E0,0E0,0E0,0E0,0E0,0E0,0E0,0E0,0E0,0E0,0E0,0E0,0E0,0E0,0E0,0E0,0E0,0E0,0E0,0E0,0E0,0E0,0E0,0E0,0E0,0E0],"parents":[2147483647,0,0,1,1,2,2,3,3,4,4,5,5,6,6,7,7,8,8,9,9,10,10,11,11,12,12,13,13,14,14,15,15,16,16,17,17,18,18,19,19,20,20,21,21,22,22,23,23,24,24,25,25,29,29,30,30],"right_children":[2,4,6,8,10,12,14,16,18,20,22,24,26,28,30,32,34,36,38,40,42,44,46,48,50,52,-1,-1,-1,54,56,-1,-1,-1,-1,-1,-1,-1,-1,-1,-1,-1,-1,-1,-1,-1,-1,-1,-1,-1,-1,-1,-1,-1,-1,-1,-1],"split_conditions":[4.1819584E-1,2.8369915E-1,5.707281E-1,1.0822754E0,-5.492183E-1,1.2112138E0,-9.858746E-1,-3.180002E-1,-2.2139253E-1,-7.407483E-1,3.2486266E-1,-6.306606E-1,-4.7462505E-1,4.9437758E-1,-8.927578E-1,1.6211183E0,2.0700854E-1,-1.011294E0,-7.15688E-1,9.917351E-1,3.4937197E-1,-2.0891404E-1,3.4307152E-2,-3.872365E-1,-6.095681E-1,-8.2739687E-1,-1.2738419E-1,4.108168E-1,-1.406486E-1,-3.5540205E-1,-8.2593083E-1,-1.2641025E-1,1.4731939E-1,-8.038265E-2,1.1303813E-1,-1.0973638E-1,6.030065E-1,1.8121202E-1,-1.1757801E-1,-1.4052874E-1,2.792648E-1,2.2049052E-1,-3.2479186E-2,1.4430478E-1,5.0388384E-1,1.3321589E-1,-1.0298007E-1,-1.1206619E-1,4.2668715E-1,-1.8673008E-2,-1.3901968E-1,-8.545286E-2,5.596076E-1,1.2230371E-1,-1.3391301E-1,-6.1177015E-2,-1.485789E-1],"split_indices":[1,15,1,14,26,14,18,14,4,16,2,4,18,39,35,29,15,34,37,29,15,36,4,40,40,32,0,0,0,16,5,0,0,0,0,0,0,0,0,0,0,0,0,0,0,0,0,0,0,0,0,0,0,0,0,0,0],"split_type":[0,0,0,0,0,0,0,0,0,0,0,0,0,0,0,0,0,0,0,0,0,0,0,0,0,0,0,0,0,0,0,0,0,0,0,0,0,0,0,0,0,0,0,0,0,0,0,0,0,0,0,0,0,0,0,0,0],"sum_hessian":[1.0770789E3,7.3734735E2,3.397314E2,2.7374536E2,4.63602E2,6.0703716E1,2.790277E2,2.415484E2,3.2196968E1,1.3844563E2,3.2515634E2,5.176473E1,8.938989E0,1.026935E1,2.6875836E2,1.4203546E2,9.951295E1,1.3256597E1,1.894037E1,6.8719086E1,6.9726555E1,1.4796196E2,1.7719438E2,4.0916505E0,4.767308E1,4.7642965E0,4.1746917E0,1.7785001E0,8.49085E0,2.3353922E1,2.4540443E2,1.397036E2,2.3318584E0,7.175029E1,2.7762655E1,1.9933914E0,1.1263206E1,2.8423975E0,1.6097973E1,6.6718666E1,2.0004146E0,2.5663574E1,4.4062984E1,7.17029E1,7.625906E1,1.2096861E2,5.622577E1,2.3685484E0,1.7231021E0,1.2448077E1,3.5225002E1,1.1524284E0,3.6118681E0,5.6278963E0,1.7726025E1,1.2583533E1,2.328209E2],"tree_param":{"num_deleted":"0","num_feature":"57","num_nodes":"57","size_leaf_vector":"0"}},{"base_weights":[-1.2802506E-2,-3.6696503E-1,2.7008182E-1,-4.8460177E-1,-8.284663E-2,1.0776671E0,6.043046E-2,-3.4361354E-1,-5.1054937E-1,1.5205615E0,-2.3426136E-1,4.415501E-2,1.3793615E0,2.2695978E-1,-3.837095E-1,-3.90659E-1,5.410182E-1,-5.1704866E-1,8.1968874E-2,-3.775277E-1,1.9676818E0,-5.027673E-1,-1.6481986E-2,2.0045283E0,-2.0034014E-1,6.826051E-1,2.2056544E0,5.302191E-1,-2.874429E-1,-4.2312622E-1,3.8054332E-1,-4.2536315E-1,7.0751154E-1,1.2233119E0,-3.051371E-1,-5.23758E-1,-2.4177566E-2,7.065371E-1,-3.6973384E-1,1.19333796E-1,2.212736E0,2.0520909E-1,-5.193251E-1,6.882687E-1,-3.804855E-1,-3.2696098E-1,7.231258E-1,-1.1461034E-1,1.3080131E0,-3.705909E-1,2.3166187E0,-3.393626E-2,9.328936E-1,-3.2256463E-1,1.5190114E0,2.9325634E-1,-4.4439033E-1,-2.9462093E-1,2.099372E0],"categories":[],"categories_nodes":[],"categories_segments":[],"categories_sizes":[],"default_left":[1,1,1,1,1,1,1,1,1,1,1,1,1,1,1,1,1,1,1,0,1,1,1,0,1,1,1,1,1,1,1,0,0,0,0,0,0,0,0,0,0,0,0,0,0,0,0,0,0,0,0,0,0,0,0,0,0,0,0],"id":13,"left_children":[1,3,5,7,9,11,13,15,17,19,21,23,25,27,29,31,33,35,37,-1,39,41,43,-1,45,47,49,51,53,55,57,-1,-1,-1,-1,-1,-1,-1,-1,-1,-1,-1,-1,-1,-1,-1,-1,-1,-1,-1,-1,-1,-1,-1,-1,-1,-1,-1,-1],"loss_changes":[1.0900573E2,1.6107307E1,1.0235231E2,1.0737228E0,3.499341E1,3.879341E1,3.5684772E1,2.547483E0,1.1449966E0,1.1303507E1,7.6651387E0,1.4392092E1,5.400679E1,5.4856667E1,4.1259995E0,2.3543367E0,2.251758E0,9.2435455E-1,1.3811704E0,0E0,4.370598E0,7.950878E-1,1.9114668E1,0E0,3.377375E0,2.6953539E1,1.3340286E1,5.0228645E1,8.782891E0,2.0442047E0,8.721009E0,0E0,0E0,0E0,0E0,0E0,0E0,0E0,0E0,0E0,0E0,0E0,0E0,0E0,0E0,0E0,0E0,0E0,0E0,0E0,0E0,0E0,0E0,0E0,0E0,0E0,0E0,0E0,0E0],"parents":[2147483647,0,0,1,1,2,2,3,3,4,4,5,5,6,6,7,7,8,8,9,9,10,10,11,11,12,12,13,13,14,14,15,15,16,16,17,17,18,18,20,20,21,21,22,22,24,24,25,25,26,26,27,27,28,28,29,29,30,30],"right_children":[2,4,6,8,10,12,14,16,18,20,22,24,26,28,30,32,34,36,38,-1,40,42,44,-1,46,48,50,52,54,56,58,-1,-1,-1,-1,-1,-1,-1,-1,-1,-1,-1,-1,-1,-1,-1,-1,-1,-1,-1,-1,-1,-1,-1,-1,-1,-1,-1,-1],"split_conditions":[-3.5467595E-1,4.8523068E-1,-4.7459722E-1,-1.0328796E0,-9.654059E-1,-1.12489335E-1,8.7126184E-1,1.55371E0,1.9221612E0,-2.515925E0,-5.82899E-1,-1.6831411E0,5.3753763E-1,3.2643986E-1,1.6112826E0,8.7294364E-1,-6.167017E-1,1.3509338E0,-3.3576965E-1,-1.0942749E-1,-3.115046E-1,-9.807528E-1,-6.4745283E-1,5.8101827E-1,1.3852122E0,-1.1377772E-1,1.4401273E-1,6.54018E-1,1.4177079E0,-1.5949333E0,1.527342E0,-1.2329272E-1,2.0507424E-1,3.5458046E-1,-8.844486E-2,-1.5181275E-1,-7.0079365E-3,2.047918E-1,-1.0716841E-1,3.4589242E-2,6.413678E-1,5.948044E-2,-1.5052786E-1,1.9949666E-1,-1.1028481E-1,-9.477057E-2,2.0960009E-1,-3.3220135E-2,3.7913132E-1,-1.0741683E-1,6.7147857E-1,-9.836522E-3,2.7040187E-1,-9.349628E-2,4.402898E-1,8.5001186E-2,-1.2880781E-1,-8.539672E-2,6.0850894E-1],"split_indices":[16,35,14,37,13,15,14,51,29,15,4,29,35,23,27,15,27,31,18,0,7,47,14,0,51,16,31,17,15,29,4,0,0,0,0,0,0,0,0,0,0,0,0,0,0,0,0,0,0,0,0,0,0,0,0,0,0,0,0],"split_type":[0,0,0,0,0,0,0,0,0,0,0,0,0,0,0,0,0,0,0,0,0,0,0,0,0,0,0,0,0,0,0,0,0,0,0,0,0,0,0,0,0,0,0,0,0,0,0,0,0,0,0,0,0,0,0,0,0,0,0],"sum_hessian":[1.0860332E3,4.8212735E2,6.039059E2,3.40458E2,1.4166933E2,1.2361103E2,4.8029483E2,5.5132767E1,2.8532526E2,1.14437065E1,1.3022562E2,2.8189346E1,9.5421684E1,3.4967422E2,1.306206E2,5.287901E1,2.2537575E0,2.823555E2,2.9697394E0,2.2114468E0,9.23226E0,5.773455E1,7.2491066E1,2.3276331E0,2.5861713E1,5.2759396E1,4.266229E1,2.1996565E2,1.2970857E2,1.2463866E2,5.9819465E0,5.1853024E1,1.025986E0,1.0009313E0,1.2528262E0,2.7850165E2,3.8538718E0,1.0096017E0,1.9601377E0,1.2547954E0,7.977464E0,1.0590326E0,5.6675518E1,2.4386093E1,4.8104973E1,2.3311327E1,2.550386E0,2.3552927E1,2.920647E1,1.6650575E0,4.099723E1,9.199479E1,1.2797086E2,1.280406E2,1.6679745E0,3.2242243E0,1.2141444E2,4.889801E0,1.0921457E0],"tree_param":{"num_deleted":"0","num_feature":"57","num_nodes":"59","size_leaf_vector":"0"}},{"base_weights":[-1.1119927E-2,-2.2949973E-1,7.362545E-1,-4.0257916E-1,3.175524E-1,6.5052204E-2,1.0584399E0,-4.113594E-1,1.4343963E0,-1.9429076E-1,7.643279E-1,-2.8660357E-1,9.8165345E-1,-3.895222E-1,1.2506685E0,-4.7461647E-1,-1.9291839E-1,1.6819562E-1,2.0275087E0,-3.6058098E-1,8.6760616E-1,1.2218729E0,1.7690355E-1,-4.3554273E-1,5.6028384E-1,1.627169E0,1.7057197E-1,-5.309688E-1,5.800603E-1,8.926346E-1,1.785476E0,-4.991698E-1,-1.3184491E-1,-2.7475888E-1,5.545898E-1,-4.532274E-1,3.597588E-1,1.4250828E0,-2.7079186E-1,-9.837421E-2,1.5030787E0,1.5872099E-2,1.7502805E0,-4.717327E-1,6.787514E-1,-2.6647106E-1,1.3082219E0,5.9795524E-3,1.8722557E0,1.3007231E0,-2.0073242E-1,-2.8399813E-1,1.1658975E0,1.1435825E0,-2.6998642E-1,1.8425738E0,-3.1522962E-1],"categories":[],"categories_nodes":[],"categories_segments":[],"categories_sizes":[],"default_left":[1,1,1,1,1,1,1,1,1,1,1,1,1,1,1,1,1,0,0,1,1,1,1,1,1,1,1,0,1,1,1,0,0,0,0,0,0,0,0,0,0,0,0,0,0,0,0,0,0,0,0,0,0,0,0,0,0],"id":14,"left_children":[1,3,5,7,9,11,13,15,17,19,21,23,25,27,29,31,33,-1,-1,35,37,39,41,43,45,47,49,-1,51,53,55,-1,-1,-1,-1,-1,-1,-1,-1,-1,-1,-1,-1,-1,-1,-1,-1,-1,-1,-1,-1,-1,-1,-1,-1,-1,-1],"loss_changes":[1.7872617E2,8.036275E1,5.3479828E1,1.0979996E1,4.685093E1,2.6511366E1,4.7038223E1,8.778E0,2.127667E0,1.7261236E1,2.9146584E1,7.7600226E0,1.1654362E1,3.1007288E0,2.6722534E1,4.1175537E0,9.073408E0,0E0,0E0,5.748328E0,8.819344E0,2.2885208E1,1.2387969E1,2.3864126E0,6.129916E0,4.9844437E0,4.9679823E0,0E0,1.8853476E0,2.6736206E1,7.573868E0,0E0,0E0,0E0,0E0,0E0,0E0,0E0,0E0,0E0,0E0,0E0,0E0,0E0,0E0,0E0,0E0,0E0,0E0,0E0,0E0,0E0,0E0,0E0,0E0,0E0,0E0],"parents":[2147483647,0,0,1,1,2,2,3,3,4,4,5,5,6,6,7,7,8,8,9,9,10,10,11,11,12,12,13,13,14,14,15,15,16,16,19,19,20,20,21,21,22,22,23,23,24,24,25,25,26,26,28,28,29,29,30,30],"right_children":[2,4,6,8,10,12,14,16,18,20,22,24,26,28,30,32,34,-1,-1,36,38,40,42,44,46,48,50,-1,52,54,56,-1,-1,-1,-1,-1,-1,-1,-1,-1,-1,-1,-1,-1,-1,-1,-1,-1,-1,-1,-1,-1,-1,-1,-1,-1,-1],"split_conditions":[4.7327238E-1,7.975868E-1,-7.3999506E-1,3.7288322E0,-1.6571552E-1,1.2859448E0,-1.4931515E-1,-9.007503E-2,2.2422904E-1,1.8845797E-1,2.6238346E-1,2.2378739E-2,9.701965E-1,2.0546055E0,1.1842663E0,5.558294E-1,1.6205003E0,4.875198E-2,5.876792E-1,-1.1185895E-1,-2.6103923E-1,-5.8875644E-1,1.6205003E0,2.5284982E0,1.0155094E0,7.051697E-1,-3.5447803E-1,-1.5390281E-1,3.1063706E-1,1.0455211E0,1.7103219E0,-1.4468579E-1,-3.8215622E-2,-7.963964E-2,1.6074944E-1,-1.3136926E-1,1.0427711E-1,4.1306433E-1,-7.8489795E-2,-2.8514046E-2,4.3567166E-1,4.6005733E-3,5.073238E-1,-1.3673307E-1,1.9673803E-1,-7.72374E-2,3.7919188E-1,1.7331904E-3,5.4267865E-1,3.770183E-1,-5.8182865E-2,-8.231767E-2,3.3793873E-1,3.3147064E-1,-7.825634E-2,5.3407526E-1,-9.137021E-2],"split_indices":[4,1,23,6,49,22,1,16,13,42,15,39,29,24,14,1,0,0,0,56,29,30,0,21,45,32,11,0,16,31,5,0,0,0,0,0,0,0,0,0,0,0,0,0,0,0,0,0,0,0,0,0,0,0,0,0,0],"split_type":[0,0,0,0,0,0,0,0,0,0,0,0,0,0,0,0,0,0,0,0,0,0,0,0,0,0,0,0,0,0,0,0,0,0,0,0,0,0,0,0,0,0,0,0,0,0,0,0,0,0,0,0,0,0,0,0,0],"sum_hessian":[1.0930236E3,8.4640137E2,2.4662216E2,6.431743E2,2.0322702E2,8.037676E1,1.6624539E2,6.4088715E2,2.2872005E0,9.497973E1,1.082473E2,5.858705E1,2.1789713E1,1.9363506E1,1.468819E2,4.9606256E2,1.448246E2,1.139063E0,1.1481375E0,8.269098E1,1.2288749E1,6.0243534E1,4.8003765E1,5.0237644E1,8.349406E0,1.1572964E1,1.0216749E1,1.7293095E1,2.0704117E0,8.958026E1,5.730163E1,4.6247815E2,3.358441E1,1.3110327E2,1.372133E1,7.359622E1,9.094755E0,8.080079E0,4.208669E0,1.0692582E1,4.9550953E1,4.4463154E1,3.5406115E0,4.921587E1,1.0217764E0,4.2715034E0,4.0779033E0,1.6543347E0,9.91863E0,1.9075524E0,8.309197E0,1.0447394E0,1.0256723E0,7.3690735E1,1.5889527E1,5.590499E1,1.3966357E0],"tree_param":{"num_deleted":"0","num_feature":"57","num_nodes":"57","size_leaf_vector":"0"}},{"base_weights":[-7.512658E-3,5.101656E-1,-3.260866E-1,7.321351E-1,-1.3568343E-1,1.6962141E-1,-4.737046E-1,-1.2955871E-1,8.9523757E-1,1.1135068E0,-3.7449944E-1,1.1058098E0,-1.107453E-1,7.452023E-1,-4.826407E-1,-3.7833732E-1,1.255306E0,5.8413553E-1,1.2869538E0,1.834275E0,-2.1792811E-1,-4.0534496E-1,9.239306E-1,4.1036087E-1,1.6111239E0,5.34012E-1,-5.1494724E-1,1.5719342E0,-3.4991038E-1,6.098706E-2,-5.0157017E-1,-4.638544E-1,7.554963E-1,-1.3614614E-1,1.9591982E0,1.2373209E0,3.6829573E-1,6.1187744E-1,1.5345527E0,6.665428E-1,-4.8133448E-1,3.4047756E-1,-4.5464426E-1,7.8129935E-1,-3.3256608E-1,-1.2836918E-1,1.8432136E0,1.2581846E0,-2.0214279E-1,2.1891937E-1,-5.279892E-1,7.0213044E-1,-4.1159543E-1,-2.2113255E-1,-5.173551E-1],"categories":[],"categories_nodes":[],"categories_segments":[],"categories_sizes":[],"default_left":[1,1,1,1,1,1,1,1,1,1,1,1,1,1,1,1,1,1,1,0,1,1,0,1,1,1,1,0,0,1,1,0,0,0,0,0,0,0,0,0,0,0,0,0,0,0,0,0,0,0,0,0,0,0,0],"id":15,"left_children":[1,3,5,7,9,11,13,15,17,19,21,23,25,27,29,31,33,35,37,-1,39,41,-1,43,45,47,49,-1,-1,51,53,-1,-1,-1,-1,-1,-1,-1,-1,-1,-1,-1,-1,-1,-1,-1,-1,-1,-1,-1,-1,-1,-1,-1,-1],"loss_changes":[1.794057E2,5.951068E1,4.93574E1,4.3485107E1,3.229157E1,4.0873806E1,6.0144043E0,1.7696295E1,3.08833E1,1.7097347E1,3.9968996E0,1.1944855E1,3.1648994E1,4.326679E0,5.3403397E0,4.5336003E0,7.9490757E0,2.0200603E1,1.8128937E1,0E0,1.9527826E0,3.428711E0,0E0,4.7896824E0,8.486225E0,2.524616E1,8.2868576E-1,0E0,0E0,5.819777E0,2.0933075E0,0E0,0E0,0E0,0E0,0E0,0E0,0E0,0E0,0E0,0E0,0E0,0E0,0E0,0E0,0E0,0E0,0E0,0E0,0E0,0E0,0E0,0E0,0E0,0E0],"parents":[2147483647,0,0,1,1,2,2,3,3,4,4,5,5,6,6,7,7,8,8,9,9,10,10,11,11,12,12,13,13,14,14,15,15,16,16,17,17,18,18,20,20,21,21,23,23,24,24,25,25,26,26,29,29,30,30],"right_children":[2,4,6,8,10,12,14,16,18,20,22,24,26,28,30,32,34,36,38,-1,40,42,-1,44,46,48,50,-1,-1,52,54,-1,-1,-1,-1,-1,-1,-1,-1,-1,-1,-1,-1,-1,-1,-1,-1,-1,-1,-1,-1,-1,-1,-1,-1],"split_conditions":[-4.4234717E-1,5.2632775E-2,-6.9416606E-1,-9.307003E-1,-4.291587E-1,-3.0275685E-1,-1.7818611E0,9.4464207E-1,1.325241E-1,-9.1979426E-1,2.3877277E0,-9.213382E-1,-2.2963704E-1,-6.04077E-1,-9.588188E-1,6.114323E-1,-6.99136E-1,-8.936311E-2,-8.6298025E-1,5.3166986E-1,-5.4817396E-1,-1.850856E0,2.678039E-1,-3.668927E-1,-8.3649254E-1,-8.007598E-1,-2.2060504E0,4.5562962E-1,-1.01422526E-1,2.1314219E-1,-8.4604543E-1,-1.3444953E-1,2.1898277E-1,-3.946235E-2,5.678792E-1,3.58641E-1,1.0675157E-1,1.7735443E-1,4.4479448E-1,1.9319934E-1,-1.3951617E-1,9.8688394E-2,-1.3177994E-1,2.2646184E-1,-9.639523E-2,-3.7208173E-2,5.342607E-1,3.646884E-1,-5.8591664E-2,6.3454404E-2,-1.5303919E-1,2.0351452E-1,-1.1930212E-1,-6.40959E-2,-1.4995685E-1],"split_indices":[1,30,30,22,15,17,9,21,56,5,2,5,27,56,34,15,5,15,39,0,17,1,0,44,53,28,33,0,0,17,17,0,0,0,0,0,0,0,0,0,0,0,0,0,0,0,0,0,0,0,0,0,0,0,0],"split_type":[0,0,0,0,0,0,0,0,0,0,0,0,0,0,0,0,0,0,0,0,0,0,0,0,0,0,0,0,0,0,0,0,0,0,0,0,0,0,0,0,0,0,0,0,0,0,0,0,0,0,0,0,0,0,0],"sum_hessian":[1.0858339E3,4.1342407E2,6.724098E2,3.0757956E2,1.0584451E2,1.5425739E2,5.181524E2,4.8985863E1,2.5859372E2,1.6399576E1,8.944493E1,3.4871574E1,1.1938581E2,3.1714063E0,5.14981E2,4.2142197E1,6.843665E0,1.4551585E2,1.1307785E2,1.0394745E1,6.0048313E0,8.8041245E1,1.4036908E0,1.5437497E1,1.9434078E1,4.5879917E1,7.350589E1,1.5590365E0,1.6123699E0,1.7253824E1,4.9772717E2,3.9736084E1,2.406116E0,2.5699587E0,4.273706E0,3.4966343E1,1.1054951E2,3.1275822E1,8.180203E1,1.0267423E0,4.978089E0,5.092544E0,8.29487E1,1.0262066E1,5.1754313E0,2.3403378E0,1.709374E1,2.2770712E1,2.3109207E1,1.0078629E0,7.2498024E1,7.115133E0,1.0138691E1,2.7322384E1,4.704048E2],"tree_param":{"num_deleted":"0","num_feature":"57","num_nodes":"55","size_leaf_vector":"0"}},{"base_weights":[-3.8567102E-3,-4.0463874E-1,8.1587946E-1,9.160495E-1,-4.393001E-1,-1.9604E-1,1.2727691E0,-4.5352224E-1,1.4268346E0,-2.1352252E-2,-4.8477045E-1,-4.2973864E-1,6.9207436E-1,1.4266099E0,-6.17024E-2,-3.726056E-1,1.6447283E0,-5.41129E-1,5.001555E-1,-4.935762E-1,5.066432E-1,1.353183E-1,-5.2667296E-1,1.2271159E0,-4.882655E-1,5.5691427E-1,1.6248859E0,-3.5245097E-1,1.1495157E0,1.8237644E0,3.1161198E-1,1.0994038E-1,1.5312217E0,-3.6206314E-1,-5.3530484E-1,-4.3378875E-1,2.248052E0,9.519256E-1,-4.8881686E-1,-5.3963345E-1,2.1635099E-1,-4.4813544E-1,1.6960173E0,1.5292463E0,-6.256807E-2,1.6511809E0,-3.8679564E-1,5.5541927E-1,-4.7872126E-1,2.9326695E-1,1.5170425E0],"categories":[],"categories_nodes":[],"categories_segments":[],"categories_sizes":[],"default_left":[1,1,1,1,1,1,1,0,1,1,1,1,1,1,1,0,1,0,1,1,1,1,1,1,0,1,1,1,1,0,0,0,0,0,0,0,0,0,0,0,0,0,0,0,0,0,0,0,0,0,0],"id":16,"left_children":[1,3,5,7,9,11,13,-1,15,17,19,21,23,25,27,-1,29,-1,31,33,35,37,39,41,-1,43,45,47,49,-1,-1,-1,-1,-1,-1,-1,-1,-1,-1,-1,-1,-1,-1,-1,-1,-1,-1,-1,-1,-1,-1],"loss_changes":[3.5937946E2,3.4033646E1,1.6632059E2,1.4017437E1,1.3607422E1,2.3667639E1,5.0919434E1,0E0,6.165558E0,1.9612705E1,5.8915863E0,4.987715E0,1.5654939E1,3.738507E1,9.755696E0,0E0,2.4908104E0,0E0,1.4371301E1,3.324051E0,1.1100276E1,7.5696335E0,8.5653305E-1,1.3869591E1,0E0,2.5843575E1,1.0176178E1,2.8082469E0,1.2464452E0,0E0,0E0,0E0,0E0,0E0,0E0,0E0,0E0,0E0,0E0,0E0,0E0,0E0,0E0,0E0,0E0,0E0,0E0,0E0,0E0,0E0,0E0],"parents":[2147483647,0,0,1,1,2,2,3,3,4,4,5,5,6,6,8,8,9,9,10,10,11,11,12,12,13,13,14,14,16,16,18,18,19,19,20,20,21,21,22,22,23,23,25,25,26,26,27,27,28,28],"right_children":[2,4,6,8,10,12,14,-1,16,18,20,22,24,26,28,-1,30,-1,32,34,36,38,40,42,-1,44,46,48,50,-1,-1,-1,-1,-1,-1,-1,-1,-1,-1,-1,-1,-1,-1,-1,-1,-1,-1,-1,-1,-1,-1],"split_conditions":[6.89382E-1,-1.8928709E0,2.6090676E-1,1.4826702E-1,-8.169837E-1,3.930788E-1,-1.4568895E-1,-1.3145472E-1,-8.5528636E-1,-5.3598844E-2,4.9978013E0,-9.267765E-1,-3.1651488E-1,2.789969E-1,1.3626204E0,-1.0800079E-1,1.4770277E0,-1.5684779E-1,5.359095E-1,-5.4280555E-1,8.3284026E-1,1.1007946E0,2.4555678E0,-1.4439306E0,-1.4152515E-1,-7.769525E-1,6.132531E-1,-7.164407E-1,1.1240836E0,5.2862334E-1,9.032162E-2,3.186653E-2,4.43829E-1,-1.04945034E-1,-1.5515964E-1,-1.2573491E-1,6.5160424E-1,2.7591833E-1,-1.4168496E-1,-1.564143E-1,6.270995E-2,-1.2989333E-1,4.9159545E-1,4.432564E-1,-1.8135533E-2,4.785995E-1,-1.1211382E-1,1.6098987E-1,-1.3875872E-1,8.500426E-2,4.397191E-1],"split_indices":[23,2,17,39,18,11,18,0,54,23,46,15,41,1,11,0,3,0,5,45,27,27,23,29,0,18,40,44,23,0,0,0,0,0,0,0,0,0,0,0,0,0,0,0,0,0,0,0,0,0,0],"split_type":[0,0,0,0,0,0,0,0,0,0,0,0,0,0,0,0,0,0,0,0,0,0,0,0,0,0,0,0,0,0,0,0,0,0,0,0,0,0,0,0,0,0,0,0,0,0,0,0,0,0,0],"sum_hessian":[1.0918783E3,7.3367786E2,3.5820038E2,1.811258E1,7.155653E2,1.1159986E2,2.4660052E2,4.950602E0,1.3161977E1,7.03551E1,6.452102E2,8.875973E1,2.2840134E1,2.2104852E2,2.5551996E1,1.3449433E0,1.1817033E1,3.5217186E1,3.5137917E1,6.400276E2,5.1826E0,1.293896E1,7.582077E1,1.568884E1,7.151294E0,4.174626E1,1.7930226E2,2.1177439E1,4.374557E0,1.0093448E1,1.7235854E0,2.6293547E1,8.84437E0,1.564939E2,4.835337E2,3.8528183E0,1.3297817E0,5.377692E0,7.561268E0,7.478995E1,1.030823E0,3.4406521E0,1.2248188E1,1.5674761E1,2.6071503E1,1.7716571E2,2.1365583E0,2.1708198E0,1.900662E1,1.8537394E0,2.5208178E0],"tree_param":{"num_deleted":"0","num_feature":"57","num_nodes":"51","size_leaf_vector":"0"}},{"base_weights":[-1.9954299E-3,-3.537206E-1,1.0047988E0,7.827025E-2,-4.758734E-1,1.7658173E-1,1.2682118E0,-5.204391E-1,4.2893526E-1,-5.1904553E-1,-4.5736935E-2,1.3137511E0,-7.9685956E-2,1.1974008E-1,1.3669925E0,-5.351819E-1,2.2643107E-1,2.8053233E-1,1.6111857E0,-5.273123E-1,-6.438962E-2,1.9751379E-1,-4.4534224E-1,1.6032077E0,-3.5673258E-1,-2.4220198E-1,1.6464998E0,-3.6014804E-1,7.236412E-1,3.394852E-1,1.456253E0,1.0440179E-1,9.6578413E-1,-3.224313E-1,1.8648734E0,-5.307211E-1,4.2502037E-1,-3.8114062E-1,9.1529787E-1,-3.306347E-1,5.511825E-1,-5.305838E-1,3.242029E-1,2.0286734E0,1.3132429E-1,-3.265284E-1,1.5469242E0,1.9677358E0,1.941013E-1,5.542172E-1,-5.343425E-1,-2.2688672E-1,1.3992949E0,-3.4622645E-1,1.2889428E0,4.2983544E-1,1.5123347E0],"categories":[],"categories_nodes":[],"categories_segments":[],"categories_sizes":[],"default_left":[1,1,1,1,1,1,1,1,1,1,1,1,1,1,1,0,0,1,1,1,1,1,1,1,0,1,1,1,1,1,1,0,0,0,0,0,0,0,0,0,0,0,0,0,0,0,0,0,0,0,0,0,0,0,0,0,0],"id":17,"left_children":[1,3,5,7,9,11,13,15,17,19,21,23,25,27,29,-1,-1,31,33,35,37,39,41,43,-1,45,47,49,51,53,55,-1,-1,-1,-1,-1,-1,-1,-1,-1,-1,-1,-1,-1,-1,-1,-1,-1,-1,-1,-1,-1,-1,-1,-1,-1,-1],"loss_changes":[3.906326E2,4.3176735E1,6.2084106E1,3.82379E1,1.1813614E1,2.052694E1,2.440033E1,8.625736E-1,1.9678444E1,2.143036E0,5.8463964E0,6.831419E0,1.6707035E1,5.5479465E0,1.7782776E1,0E0,0E0,1.2348865E1,6.774826E0,2.0718384E0,3.9120612E0,7.19007E0,1.6626029E0,6.757141E0,0E0,8.65254E0,2.0117054E0,2.0217094E0,5.719072E0,1.1665212E1,9.88678E0,0E0,0E0,0E0,0E0,0E0,0E0,0E0,0E0,0E0,0E0,0E0,0E0,0E0,0E0,0E0,0E0,0E0,0E0,0E0,0E0,0E0,0E0,0E0,0E0,0E0,0E0],"parents":[2147483647,0,0,1,1,2,2,3,3,4,4,5,5,6,6,7,7,8,8,9,9,10,10,11,11,12,12,13,13,14,14,17,17,18,18,19,19,20,20,21,21,22,22,23,23,25,25,26,26,27,27,28,28,29,29,30,30],"right_children":[2,4,6,8,10,12,14,16,18,20,22,24,26,28,30,-1,-1,32,34,36,38,40,42,44,-1,46,48,50,52,54,56,-1,-1,-1,-1,-1,-1,-1,-1,-1,-1,-1,-1,-1,-1,-1,-1,-1,-1,-1,-1,-1,-1,-1,-1,-1,-1],"split_conditions":[1.0745221E0,-5.6971383E-1,-1.22310475E-1,-3.3557826E-1,1.1090463E0,1.3109955E-1,-6.451881E-1,1.0428497E0,1.1902972E0,1.5159285E0,1.3120406E0,-8.0220354E-1,1.2587476E0,-3.887665E-3,-3.295439E-1,-1.55124E-1,6.5631695E-2,1.1968951E0,-5.876597E-1,4.204778E0,8.2189417E-1,-4.8044762E-1,2.3980255E0,-4.8455918E-1,-1.03399955E-1,2.4318857E0,1.1577303E0,-9.4706297E-1,1.4477767E0,1.5419948E0,3.3645105E-1,3.0261157E-2,2.799353E-1,-9.345763E-2,5.405389E-1,-1.5383103E-1,1.2319337E-1,-1.104747E-1,2.653017E-1,-9.583542E-2,1.5976183E-1,-1.5379123E-1,9.397113E-2,5.880168E-1,3.8064722E-2,-9.464519E-2,4.483804E-1,5.703538E-1,5.6260817E-2,1.6064145E-1,-1.548807E-1,-6.5763764E-2,4.055896E-1,-1.0035472E-1,3.7360376E-1,1.2458903E-1,4.3835452E-1],"split_indices":[7,23,14,7,33,37,54,4,52,29,37,27,4,55,15,0,0,33,4,16,7,14,14,39,0,9,26,22,7,16,29,0,0,0,0,0,0,0,0,0,0,0,0,0,0,0,0,0,0,0,0,0,0,0,0,0,0],"split_type":[0,0,0,0,0,0,0,0,0,0,0,0,0,0,0,0,0,0,0,0,0,0,0,0,0,0,0,0,0,0,0,0,0,0,0,0,0,0,0,0,0,0,0,0,0,0,0,0,0,0,0,0,0,0,0,0,0],"sum_hessian":[1.1011204E3,8.165174E2,2.84603E2,1.8006842E2,6.36449E2,6.9078476E1,2.1552452E2,6.633203E1,1.137364E2,5.782084E2,5.8240547E1,1.19453535E1,5.713312E1,1.7244434E1,1.9828009E2,6.532596E1,1.0060657E0,1.0215109E2,1.158531E1,5.6772595E2,1.0482465E1,3.6517235E1,2.1723314E1,1.0215512E1,1.7298416E0,5.3002735E1,4.1303844E0,9.833727E0,7.410709E0,1.6231968E1,1.8204811E2,8.218054E1,1.9970545E1,1.312258E0,1.0273052E1,5.6614215E2,1.5837643E0,8.383033E0,2.0994318E0,1.4672018E1,2.1845217E1,1.9836565E1,1.8867487E0,7.6313066E0,2.5842052E0,5.1397713E1,1.6050224E0,3.0917459E0,1.0386386E0,1.2245153E0,8.609211E0,3.355E0,4.055709E0,9.793969E0,6.4379997E0,9.880353E0,1.7216776E2],"tree_param":{"num_deleted":"0","num_feature":"57","num_nodes":"57","size_leaf_vector":"0"}},{"base_weights":[-1.8815158E-2,-3.6358222E-1,3.9911106E-1,-5.0182647E-1,-1.7156379E-1,1.3281061E-1,9.896027E-1,-5.1477164E-1,-4.37196E-2,-3.073216E-1,1.8224052E-1,-1.8194064E-1,6.3777345E-1,5.163896E-2,1.2948911E0,-2.859259E-1,-5.257237E-1,1.4577241E0,-3.9601982E-1,-3.5110778E-1,4.4274843E-1,1.8935436E0,3.6527246E-2,-3.7719023E-1,1.3181284E-1,1.0252509E0,-3.306254E-1,-4.325099E-1,5.5096656E-1,1.6992847E0,1.62247E-1,-4.4601828E-1,7.1266377E-1,-5.287937E-1,8.815623E-2,2.0502263E-1,-4.9697372E-1,-3.8015205E-1,4.5109934E-1,8.540665E-1,-4.1331452E-1,5.2696383E-1,2.622546E0,-2.3185746E-1,7.5846016E-1,-4.163355E-1,3.3286116E-1,3.979194E-1,-4.1538388E-1,1.3193591E-1,1.3609935E0,-4.0514535E-1,1.083408E0,-2.504563E-3,-5.2430594E-1,2.28456E-2,1.3981594E0,6.0345758E-2,1.8688152E0,-1.4744078E-1,1.3704103E0],"categories":[],"categories_nodes":[],"categories_segments":[],"categories_sizes":[],"default_left":[1,1,1,1,1,1,1,1,1,1,1,1,1,1,1,1,1,0,1,1,1,1,1,1,1,1,1,1,1,1,1,0,0,0,0,0,0,0,0,0,0,0,0,0,0,0,0,0,0,0,0,0,0,0,0,0,0,0,0,0,0],"id":18,"left_children":[1,3,5,7,9,11,13,15,17,19,21,23,25,27,29,31,33,-1,35,37,39,41,43,45,47,49,51,53,55,57,59,-1,-1,-1,-1,-1,-1,-1,-1,-1,-1,-1,-1,-1,-1,-1,-1,-1,-1,-1,-1,-1,-1,-1,-1,-1,-1,-1,-1,-1,-1],"loss_changes":[1.55178E2,1.5578651E1,7.642565E1,2.0090637E0,1.1993472E1,5.3628796E1,4.321913E1,6.8447113E-1,6.135222E0,6.066677E0,1.7273073E1,1.2803299E1,4.8932816E1,9.463686E0,5.1941956E1,3.1002402E0,6.434021E-1,0E0,6.6599715E-1,4.1467686E0,4.0042963E0,4.0350056E0,1.2791229E1,3.712679E0,1.1901656E1,2.7634804E1,4.418387E0,7.8558564E-1,8.570076E0,2.3199951E1,1.1838191E1,0E0,0E0,0E0,0E0,0E0,0E0,0E0,0E0,0E0,0E0,0E0,0E0,0E0,0E0,0E0,0E0,0E0,0E0,0E0,0E0,0E0,0E0,0E0,0E0,0E0,0E0,0E0,0E0,0E0,0E0],"parents":[2147483647,0,0,1,1,2,2,3,3,4,4,5,5,6,6,7,7,8,8,9,9,10,10,11,11,12,12,13,13,14,14,15,15,16,16,18,18,19,19,20,20,21,21,22,22,23,23,24,24,25,25,26,26,27,27,28,28,29,29,30,30],"right_children":[2,4,6,8,10,12,14,16,18,20,22,24,26,28,30,32,34,-1,36,38,40,42,44,46,48,50,52,54,56,58,60,-1,-1,-1,-1,-1,-1,-1,-1,-1,-1,-1,-1,-1,-1,-1,-1,-1,-1,-1,-1,-1,-1,-1,-1,-1,-1,-1,-1,-1,-1],"split_conditions":[-5.6930706E-2,-5.0549537E-1,4.4899952E-1,1.1521246E0,4.4899952E-1,7.113377E-1,-3.5695177E-1,-9.903265E-1,-5.036455E-1,1.3999262E0,-1.0653012E0,5.807353E-1,8.1565166E-1,-3.1332308E-1,2.2841468E-1,6.52433E-1,2.1150134E0,4.225255E-1,-5.037581E-1,1.8121681E0,2.2514251E-1,-2.8766075E-1,6.5766335E-1,1.1732817E0,6.579788E-1,9.44262E-2,1.6289401E0,-3.7379694E-1,3.8102153E-1,-4.5364082E-1,1.2715055E0,-1.2927967E-1,2.0656763E-1,-1.5327236E-1,2.5552336E-2,5.9426397E-2,-1.4404926E-1,-1.1018816E-1,1.3075243E-1,2.4755362E-1,-1.19800396E-1,1.5274197E-1,7.6015246E-1,-6.720455E-2,2.1984185E-1,-1.2067603E-1,9.648076E-2,1.1533807E-1,-1.20400205E-1,3.8242E-2,3.9448786E-1,-1.17432535E-1,3.1402892E-1,-7.259547E-4,-1.5197158E-1,6.6218623E-3,4.052605E-1,1.749139E-2,5.416814E-1,-4.273613E-2,3.9721736E-1],"split_indices":[22,22,0,30,0,30,1,13,15,24,13,33,16,17,16,38,7,0,52,30,13,4,33,7,17,10,41,56,45,30,45,0,0,0,0,0,0,0,0,0,0,0,0,0,0,0,0,0,0,0,0,0,0,0,0,0,0,0,0,0,0],"split_type":[0,0,0,0,0,0,0,0,0,0,0,0,0,0,0,0,0,0,0,0,0,0,0,0,0,0,0,0,0,0,0,0,0,0,0,0,0,0,0,0,0,0,0,0,0,0,0,0,0,0,0,0,0,0,0,0,0,0,0,0,0],"sum_hessian":[1.0749657E3,5.891106E2,4.858551E2,3.4157742E2,2.4753313E2,3.3569016E2,1.5016493E2,3.3207013E2,9.507308E0,1.7898601E2,6.854712E1,2.0718698E2,1.2850319E2,3.7161037E1,1.130039E2,1.6404383E1,3.1566574E2,1.2105247E0,8.296783E0,1.6961636E2,9.369643E0,4.437437E0,6.410968E1,1.2758705E2,7.959992E1,9.173808E1,3.6765114E1,1.8935225E1,1.8225811E1,8.2903984E1,3.0099909E1,1.4614724E1,1.7896585E0,3.1423288E2,1.4328532E0,1.0449114E0,7.251872E0,1.6419763E2,5.418736E0,6.330378E0,3.0392652E0,2.143017E0,2.2944202E0,4.7230263E1,1.6879416E1,1.2131271E2,6.2743373E0,5.3738987E1,2.5860937E1,2.5440674E1,6.629741E1,3.5602345E1,1.1627707E0,3.5118325E0,1.5423393E1,1.1859704E1,6.3661065E0,7.89874E0,7.500525E1,2.4657444E1,5.442465E0],"tree_param":{"num_deleted":"0","num_feature":"57","num_nodes":"61","size_leaf_vector":"0"}},{"base_weights":[1.9557703E-2,1.1617976E-1,-4.7368568E-1,-2.723856E-1,3.249031E-1,-4.902226E-1,8.838368E-1,-3.444559E-1,7.3154014E-1,6.946916E-1,1.23633064E-1,-2.7617666E-1,-5.381797E-1,-3.629713E-1,1.5708648E0,1.3780248E0,-2.7543715E-1,9.157417E-1,-2.8385833E-1,4.143432E-1,-9.123613E-2,-3.7898633E-1,7.0549953E-1,-5.4518765E-1,-3.1020617E-1,2.100089E-1,-4.2271197E-1,1.9159385E0,-1.9368544E-1,6.550821E-1,-4.841717E-1,6.020796E-1,1.3288084E0,1.8710527E0,-4.339315E-1,-4.8650977E-1,5.482758E-1,-1.4241497E-1,7.8381383E-1,-5.3130317E-1,3.0354586E-1,1.5073647E0,-3.2319057E-1,2.1323982E-1,-4.4800216E-1],"categories":[],"categories_nodes":[],"categories_segments":[],"categories_sizes":[],"default_left":[1,1,1,1,1,1,0,1,1,1,1,1,1,1,0,1,1,1,1,1,1,1,1,0,1,0,0,0,0,0,0,0,0,0,0,0,0,0,0,0,0,0,0,0,0],"id":19,"left_children":[1,3,5,7,9,11,-1,13,15,17,19,21,23,25,-1,27,29,31,33,35,37,39,41,-1,43,-1,-1,-1,-1,-1,-1,-1,-1,-1,-1,-1,-1,-1,-1,-1,-1,-1,-1,-1,-1],"loss_changes":[5.1009132E1,7.2661476E1,4.369274E0,2.2916128E1,4.327441E1,1.6360626E0,0E0,1.0958759E1,1.4246525E1,4.4628334E1,2.3678759E1,3.6865206E0,5.611801E-2,1.00480385E1,0E0,1.1479586E1,2.0967083E0,2.0909088E1,1.3282028E1,1.9695402E1,9.894293E0,3.4169974E0,3.4246068E0,0E0,5.6615347E-1,0E0,0E0,0E0,0E0,0E0,0E0,0E0,0E0,0E0,0E0,0E0,0E0,0E0,0E0,0E0,0E0,0E0,0E0,0E0,0E0],"parents":[2147483647,0,0,1,1,2,2,3,3,4,4,5,5,7,7,8,8,9,9,10,10,11,11,12,12,13,13,15,15,16,16,17,17,18,18,19,19,20,20,21,21,22,22,24,24],"right_children":[2,4,6,8,10,12,-1,14,16,18,20,22,24,26,-1,28,30,32,34,36,38,40,42,-1,44,-1,-1,-1,-1,-1,-1,-1,-1,-1,-1,-1,-1,-1,-1,-1,-1,-1,-1,-1,-1],"split_conditions":[6.9863844E-1,-3.0005783E-1,7.3370564E-1,1.3614943E0,-5.5115247E-1,9.318794E-1,2.561826E-1,1.0195181E0,6.317094E-2,1.2868364E0,-3.8386452E-1,2.9931372E-1,1.6038285E0,-1.2288313E0,4.5531964E-1,1.9875765E0,8.144322E-3,5.972972E-1,-7.5260127E-1,-9.74875E-1,1.0277178E0,1.1826465E0,-8.656429E-1,-1.5802419E-1,1.3126526E0,6.087168E-2,-1.2252427E-1,5.5534023E-1,-5.6140278E-2,1.8987742E-1,-1.4033854E-1,1.7451449E-1,3.8515893E-1,5.4232997E-1,-1.2577629E-1,-1.4101624E-1,1.5891932E-1,-4.1279387E-2,2.2719067E-1,-1.5399975E-1,8.798364E-2,4.3691397E-1,-9.367771E-2,6.1808173E-2,-1.2985471E-1],"split_indices":[16,17,19,6,54,16,0,15,1,23,40,19,15,49,0,12,41,17,35,27,15,17,25,0,16,0,0,0,0,0,0,0,0,0,0,0,0,0,0,0,0,0,0,0,0],"split_type":[0,0,0,0,0,0,0,0,0,0,0,0,0,0,0,0,0,0,0,0,0,0,0,0,0,0,0,0,0,0,0,0,0,0,0,0,0,0,0,0,0,0,0,0,0],"sum_hessian":[1.0681573E3,8.938286E2,1.7432874E2,3.1224304E2,5.815856E2,1.7286186E2,1.4668672E0,2.9194186E2,2.0301172E1,2.0411624E2,3.774693E2,3.287782E1,1.3998404E2,2.899494E2,1.99245E0,1.213924E1,8.161932E0,1.6655614E2,3.7560104E1,1.6002841E2,2.174409E2,3.0316727E1,2.5610914E0,1.344593E2,5.5247416E0,2.7139147E1,2.6281027E2,8.880796E0,3.2584443E0,1.1036432E0,7.058289E0,9.6066025E1,7.049012E1,1.6988333E0,3.586127E1,2.0371805E1,1.396566E2,2.0621718E2,1.1223724E1,2.4966635E1,5.350092E0,1.1777273E0,1.3833642E0,1.0372049E0,4.487537E0],"tree_param":{"num_deleted":"0","num_feature":"57","num_nodes":"45","size_leaf_vector":"0"}},{"base_weights":[1.2487965E-2,-3.6486685E-1,2.3326698E-1,2.6542988E-2,-4.8804066E-1,8.397225E-1,9.728138E-2,-3.95319E-1,8.194066E-1,9.7335875E-1,-5.0706553E-1,1.1973374E0,7.764924E-2,9.490675E-1,1.6651465E-2,5.419447E-1,-4.5483837E-1,-5.024253E-1,1.2141201E0,-3.0343977E-1,1.6019422E0,-3.1622973E-1,-5.394668E-1,-8.687043E-2,1.3796884E0,3.9211035E-1,-4.145589E-1,-4.905897E-1,1.2017795E0,1.0720261E0,-4.853086E-2,-3.6829722E-1,1.6442554E0,-5.01882E-1,6.791363E-1,4.039416E-1,1.6696917E0,-3.976153E-1,1.0805154E0,6.387127E-1,-3.8138348E-1,-1.2103437E-1,1.4865681E0,8.233328E-1,-3.143612E-1,2.8268352E-1,-5.367416E-1,1.3838023E0,-2.731387E-1,1.4422916E0,-4.8773018E-1,-2.3666592E-1,3.3061823E-1],"categories":[],"categories_nodes":[],"categories_segments":[],"categories_sizes":[],"default_left":[1,1,1,1,1,1,1,1,1,1,1,1,1,1,1,1,1,0,1,0,0,1,0,1,1,1,1,0,1,1,1,0,0,0,0,0,0,0,0,0,0,0,0,0,0,0,0,0,0,0,0,0,0],"id":20,"left_children":[1,3,5,7,9,11,13,15,17,19,21,23,25,27,29,31,33,-1,35,-1,-1,37,-1,39,41,43,45,-1,47,49,51,-1,-1,-1,-1,-1,-1,-1,-1,-1,-1,-1,-1,-1,-1,-1,-1,-1,-1,-1,-1,-1,-1],"loss_changes":[8.818508E1,1.884993E1,5.4987465E1,3.1923E1,8.75782E0,3.3203194E1,3.752295E1,3.7240286E0,1.7897915E1,3.8267174E0,1.6477966E0,1.9576248E1,6.367777E0,1.7778969E1,3.4470753E1,4.7982364E0,3.496766E0,0E0,8.851223E0,0E0,0E0,5.5564036E0,0E0,2.6522257E0,1.1858887E1,7.8676987E0,1.5245323E0,0E0,1.1246082E1,1.7536777E1,3.3759758E1,0E0,0E0,0E0,0E0,0E0,0E0,0E0,0E0,0E0,0E0,0E0,0E0,0E0,0E0,0E0,0E0,0E0,0E0,0E0,0E0,0E0,0E0],"parents":[2147483647,0,0,1,1,2,2,3,3,4,4,5,5,6,6,7,7,8,8,9,9,10,10,11,11,12,12,13,13,14,14,15,15,16,16,18,18,21,21,23,23,24,24,25,25,26,26,28,28,29,29,30,30],"right_children":[2,4,6,8,10,12,14,16,18,20,22,24,26,28,30,32,34,-1,36,-1,-1,38,-1,40,42,44,46,-1,48,50,52,-1,-1,-1,-1,-1,-1,-1,-1,-1,-1,-1,-1,-1,-1,-1,-1,-1,-1,-1,-1,-1,-1],"split_conditions":[-1.28501E-1,-1.172729E0,-1.007946E0,-3.9679205E-1,-2.3133872E0,-5.2866447E-3,-1.6889122E0,-1.2027335E0,-1.5107527E-1,-1.0645528E0,-6.0607445E-1,-8.185411E-1,6.588704E-2,-6.672944E-1,-2.036579E0,-1.3479558E0,1.4576881E0,-1.456294E-1,1.2625593E-2,-8.795288E-2,4.643275E-1,5.839875E-1,-1.5636599E-1,-1.6359262E0,-1.1996187E-1,3.707614E-1,-7.3083854E-1,-1.4219883E-1,-3.0057762E-2,1.1631231E0,-1.4402593E-2,-1.06752E-1,4.7659212E-1,-1.4547193E-1,1.9684958E-1,1.17083624E-1,4.8396492E-1,-1.1524993E-1,3.1319046E-1,1.851327E-1,-1.1054509E-1,-3.5082158E-2,4.30886E-1,2.3864536E-1,-9.11185E-2,8.193663E-2,-1.555761E-1,4.0109906E-1,-7.917003E-2,4.1805235E-1,-1.4136998E-1,-6.859829E-2,9.583064E-2],"split_indices":[27,7,5,4,25,39,37,41,15,33,7,16,51,14,25,41,28,0,22,0,0,4,0,5,15,31,20,0,16,43,4,0,0,0,0,0,0,0,0,0,0,0,0,0,0,0,0,0,0,0,0,0,0],"split_type":[0,0,0,0,0,0,0,0,0,0,0,0,0,0,0,0,0,0,0,0,0,0,0,0,0,0,0,0,0,0,0,0,0,0,0,0,0,0,0,0,0,0,0,0,0,0,0,0,0,0,0,0,0],"sum_hessian":[1.05647E3,3.8971597E2,6.66754E2,9.347251E1,2.9624347E2,1.21174866E2,5.4557916E2,6.133772E1,3.2134792E1,3.1623862E0,2.930811E2,8.208434E1,3.9090527E1,4.6247128E1,4.9933203E2,3.1785822E0,5.8159138E1,7.326533E0,2.480826E1,1.2139126E0,1.9484735E0,4.410032E1,2.4898077E2,1.0271418E1,7.181292E1,2.397609E1,1.5114438E1,6.7652655E0,3.948186E1,2.8147413E1,4.711846E2,2.1056836E0,1.0728987E0,5.637769E1,1.7814491E0,9.608096E0,1.5200163E1,4.2348106E1,1.7522126E0,2.6280532E0,7.643365E0,4.7656007E0,6.7047325E1,1.47856655E1,9.190423E0,2.0578113E0,1.3056627E1,3.519958E1,4.282279E0,2.2808327E1,5.339086E0,3.1517133E2,1.5601328E2],"tree_param":{"num_deleted":"0","num_feature":"57","num_nodes":"53","size_leaf_vector":"0"}},{"base_weights":[-1.7029764E-2,9.031847E-1,-4.1770113E-1,1.082682E0,2.7208054E-2,5.026782E-1,-4.693877E-1,1.1047051E0,-2.8815062E-3,1.0121044E0,-3.3183807E-1,1.1006147E0,-3.929893E-1,-1.511445E-1,-5.136398E-1,1.1142179E0,-3.3954275E-1,1.0081534E0,-4.5558444E-1,1.1454113E0,-3.1653708E-1,5.2162856E-1,-4.713704E-1,1.3220978E0,-2.0075011E-1,-5.0390935E-1,2.3547755E-1,3.7032354E-1,-4.470397E-1,4.4553274E-1,-5.215193E-1,1.1091429E-1,1.1275997E0,1.2771219E0,2.5075263E-1,-3.5263854E-1,9.1759163E-1,-3.660443E-2,-5.444835E-1,1.4969782E0,-3.7135252E-1,-3.907826E-1,2.091399E-1,-2.8098342E-1,6.582841E-1,1.0047932E0,-2.2823118E-1,3.828465E-1,-5.3398263E-1,-2.1456413E-1,1.6401393E0,-2.8310373E-1,-5.311474E-1],"categories":[],"categories_nodes":[],"categories_segments":[],"categories_sizes":[],"default_left":[1,1,1,1,1,1,1,1,1,1,1,1,1,1,1,1,0,0,0,1,0,1,1,1,1,0,1,1,1,1,1,0,0,0,0,0,0,0,0,0,0,0,0,0,0,0,0,0,0,0,0,0,0],"id":21,"left_children":[1,3,5,7,9,11,13,15,17,19,21,23,25,27,29,31,-1,-1,-1,33,-1,35,37,39,41,-1,43,45,47,49,51,-1,-1,-1,-1,-1,-1,-1,-1,-1,-1,-1,-1,-1,-1,-1,-1,-1,-1,-1,-1,-1,-1],"loss_changes":[3.795846E2,4.9074097E1,3.435385E1,6.1989746E0,1.947938E1,2.1114233E1,9.492813E0,3.868103E0,3.2743452E0,2.9678936E0,5.060024E0,7.015999E0,1.247724E0,1.3184958E1,4.7382965E0,3.2660522E0,0E0,0E0,0E0,1.28055E0,0E0,2.4543548E0,1.1012177E0,6.5222664E0,4.1467938E-1,0E0,8.643578E-1,1.2037167E1,4.121231E0,4.6078205E0,1.2081146E0,0E0,0E0,0E0,0E0,0E0,0E0,0E0,0E0,0E0,0E0,0E0,0E0,0E0,0E0,0E0,0E0,0E0,0E0,0E0,0E0,0E0,0E0],"parents":[2147483647,0,0,1,1,2,2,3,3,4,4,5,5,6,6,7,7,8,8,9,9,10,10,11,11,12,12,13,13,14,14,15,15,19,19,21,21,22,22,23,23,24,24,26,26,27,27,28,28,29,29,30,30],"right_children":[2,4,6,8,10,12,14,16,18,20,22,24,26,28,30,32,-1,-1,-1,34,-1,36,38,40,42,-1,44,46,48,50,52,-1,-1,-1,-1,-1,-1,-1,-1,-1,-1,-1,-1,-1,-1,-1,-1,-1,-1,-1,-1,-1,-1],"split_conditions":[-7.982087E-1,-6.663805E-1,-8.309094E-1,8.0924E-1,-2.2343183E0,4.5162193E-2,-6.968254E-1,1.9392917E0,1.6642894E-1,6.0483193E-1,-6.7387825E-1,-4.8779368E-1,-5.309198E-1,-4.5407146E-1,-1.2007067E0,-2.5283093E0,-9.841744E-2,2.9221615E-1,-1.3205245E-1,-6.937799E-1,-9.174918E-2,-1.3015461E-1,-9.489872E-1,7.0080616E-2,5.1955295E-1,-1.4605956E-1,-1.0338285E0,-5.53486E-1,-1.1744764E0,7.572318E-1,-1.0236088E0,3.2148823E-2,3.26838E-1,3.7017742E-1,7.268137E-2,-1.02213286E-1,2.6596656E-1,-1.0609899E-2,-1.5782009E-1,4.339034E-1,-1.0763759E-1,-1.1326945E-1,6.0619798E-2,-8.1443846E-2,1.9080554E-1,2.9124218E-1,-6.615346E-2,1.10969156E-1,-1.547764E-1,-6.2192027E-2,4.7539908E-1,-8.205843E-2,-1.539546E-1],"split_indices":[16,10,6,23,17,23,16,25,15,23,21,16,12,23,32,7,0,0,0,4,0,37,14,21,31,0,2,24,21,20,36,0,0,0,0,0,0,0,0,0,0,0,0,0,0,0,0,0,0,0,0,0,0],"split_type":[0,0,0,0,0,0,0,0,0,0,0,0,0,0,0,0,0,0,0,0,0,0,0,0,0,0,0,0,0,0,0,0,0,0,0,0,0,0,0,0,0,0,0,0,0,0,0,0,0,0,0,0,0],"sum_hessian":[1.0274884E3,3.1129312E2,7.161953E2,2.5815775E2,5.313537E1,3.761752E1,6.7857776E2,2.5300731E2,5.150438E0,1.3709657E1,3.9425713E1,2.242083E1,1.519669E1,8.337731E1,5.9520044E2,2.5157877E2,1.4285505E0,1.2134467E0,3.9369912E0,1.2584884E1,1.1247731E0,5.155156E0,3.4270557E1,1.914633E1,3.2745006E0,1.30854E1,2.1112902E0,3.0092518E1,5.3284798E1,4.3970866E0,5.908034E2,3.4335814E0,2.4814517E2,1.0597268E1,1.9876153E0,1.6411009E0,3.5140553E0,5.1495414E0,2.9121016E1,1.7459345E1,1.6869847E0,2.269114E0,1.0053866E0,1.10138E0,1.0099102E0,1.4278535E1,1.5813983E1,4.7302537E0,4.8554543E1,3.3605537E0,1.0365326E0,2.411302E1,5.6669037E2],"tree_param":{"num_deleted":"0","num_feature":"57","num_nodes":"53","size_leaf_vector":"0"}},{"base_weights":[1.0965215E-2,1.737775E-1,-3.6782718E-1,-5.336798E-1,2.7502328E-1,-2.551947E-1,-5.209197E-1,-2.1454976E-1,4.0229928E-1,-3.620605E-1,4.2645782E-1,1.9950873E-1,-5.282658E-1,-3.8860887E-1,2.2219941E-2,5.335682E-1,-3.311411E-1,1.963321E-1,-4.1249087E-1,-2.5060915E-3,1.9292425E0,-2.415985E-2,-5.35545E-1,-4.713918E-1,6.1568934E-1,-1.8256493E-1,7.077227E-1,8.1317884E-1,1.8914478E-1,4.3627715E-1,-4.684003E-1,-4.0811768E-1,1.7043726E0,-1.6933128E-1,-4.893076E-1,5.3956306E-1,-4.975766E-1,5.401796E-1,2.1859274E0],"categories":[],"categories_nodes":[],"categories_segments":[],"categories_sizes":[],"default_left":[1,1,1,0,1,1,1,1,1,1,1,0,1,1,1,1,1,1,1,1,1,0,0,0,0,0,0,0,0,0,0,0,0,0,0,0,0,0,0],"id":22,"left_children":[1,3,5,-1,7,9,11,13,15,17,19,-1,21,23,25,27,29,31,33,35,37,-1,-1,-1,-1,-1,-1,-1,-1,-1,-1,-1,-1,-1,-1,-1,-1,-1,-1],"loss_changes":[6.551683E1,5.336173E1,5.373871E0,0E0,4.0625263E1,1.3700307E1,8.1671524E-1,5.5677266E0,4.9923622E1,4.6229954E0,1.6546988E1,0E0,4.7629547E-1,6.7579575E0,8.284755E0,4.208969E1,8.531722E0,1.349158E1,2.6863651E0,5.8937445E0,8.514042E-1,0E0,0E0,0E0,0E0,0E0,0E0,0E0,0E0,0E0,0E0,0E0,0E0,0E0,0E0,0E0,0E0,0E0,0E0],"parents":[2147483647,0,0,1,1,2,2,4,4,5,5,6,6,7,7,8,8,9,9,10,10,12,12,13,13,14,14,15,15,16,16,17,17,18,18,19,19,20,20],"right_children":[2,4,6,-1,8,10,12,14,16,18,20,-1,22,24,26,28,30,32,34,36,38,-1,-1,-1,-1,-1,-1,-1,-1,-1,-1,-1,-1,-1,-1,-1,-1,-1,-1],"split_conditions":[3.4684187E-1,-4.6051584E-2,-1.00171655E-1,-1.5468861E-1,-7.4589217E-1,1.028249E0,-9.210661E-1,-1.9698146E-1,2.9866874E-1,-7.399763E-1,1.0394406E0,5.7828173E-2,-1.3330777E0,8.2302496E-2,-4.2456913E-1,4.4029337E-1,-1.040269E0,3.900047E-1,5.665448E-1,-4.3074107E-1,-7.0263636E-1,-7.0028016E-3,-1.5522924E-1,-1.3663426E-1,1.7845932E-1,-5.2916966E-2,2.0513545E-1,2.3570222E-1,5.4824155E-2,1.2645619E-1,-1.3576716E-1,-1.18294075E-1,4.9401727E-1,-4.9081158E-2,-1.4182721E-1,1.563939E-1,-1.44224E-1,1.5657261E-1,6.335973E-1],"split_indices":[1,13,4,0,28,25,56,21,16,5,3,0,53,16,32,2,41,51,1,4,44,0,0,0,0,0,0,0,0,0,0,0,0,0,0,0,0,0,0],"split_type":[0,0,0,0,0,0,0,0,0,0,0,0,0,0,0,0,0,0,0,0,0,0,0,0,0,0,0,0,0,0,0,0,0,0,0,0,0,0,0],"sum_hessian":[1.0603058E3,7.419448E2,3.18361E2,9.235323E1,6.495916E2,1.8495428E2,1.3340671E2,1.3389038E2,5.1570123E2,1.6029323E2,2.4661058E1,1.0825518E0,1.3232416E2,7.679438E1,5.709599E1,4.376453E2,7.805591E1,1.3037858E1,1.4725537E2,1.9961468E1,4.6995897E0,1.9450182E0,1.3037914E2,7.143659E1,5.3577943E0,4.452763E1,1.2568361E1,2.4079863E2,1.9684668E2,1.1512248E1,6.654366E1,9.827993E0,3.2098644E0,3.6120872E1,1.111345E2,9.485551E0,1.0475917E1,1.2171847E0,3.482405E0],"tree_param":{"num_deleted":"0","num_feature":"57","num_nodes":"39","size_leaf_vector":"0"}},{"base_weights":[-5.725566E-3,-3.4814322E-1,2.370249E-1,-4.7706857E-1,-9.3731724E-2,7.04679E-1,3.44715E-2,-4.8374617E-1,6.3257664E-1,9.721141E-1,-2.2065315E-1,9.290768E-1,1.2499617E-1,2.4513644E-1,-2.4353717E-1,-4.9043754E-1,6.0874766E-1,1.218221E0,-3.7672246E-1,6.395407E-2,-4.3505213E-1,2.5382513E-1,1.1104857E0,4.568879E-1,-3.0952898E-1,-2.258647E-1,5.0668865E-1,-3.7584966E-1,1.17706195E-1,-5.069325E-1,-2.671424E-1,1.4169872E0,-3.1793612E-1,-3.8354933E-1,4.8097038E-1,-4.5922837E-1,4.0519243E-1,1.6169635E0,-1.607293E-1,1.26198E0,3.2680932E-1,-3.870963E-1,7.68526E-1,-3.859223E-1,6.6581196E-1,-3.4615245E-1,5.680948E-1,7.8118384E-1,-1.2495268E-1,-4.018289E-1,6.207861E-1,1.1843206E0,-1.8687704E-1],"categories":[],"categories_nodes":[],"categories_segments":[],"categories_sizes":[],"default_left":[1,1,1,1,1,1,1,1,0,1,1,1,1,1,1,1,0,1,0,1,1,1,1,1,1,1,1,1,1,0,0,0,0,0,0,0,0,0,0,0,0,0,0,0,0,0,0,0,0,0,0,0,0],"id":23,"left_children":[1,3,5,7,9,11,13,15,-1,17,19,21,23,25,27,29,-1,31,-1,33,35,37,39,41,43,45,47,49,51,-1,-1,-1,-1,-1,-1,-1,-1,-1,-1,-1,-1,-1,-1,-1,-1,-1,-1,-1,-1,-1,-1,-1,-1],"loss_changes":[8.715276E1,1.4221626E1,5.8094246E1,2.4431305E0,2.0171898E1,2.3997864E1,2.5194866E1,2.3985214E0,0E0,5.73153E0,8.121737E0,1.6070084E1,7.7689404E0,3.0253975E1,8.911329E0,9.1822815E-1,0E0,4.624048E0,0E0,1.0982629E1,1.7255039E0,1.6966536E1,1.204451E1,8.290626E0,2.007905E0,8.605181E0,2.742477E1,3.771286E0,1.662563E1,0E0,0E0,0E0,0E0,0E0,0E0,0E0,0E0,0E0,0E0,0E0,0E0,0E0,0E0,0E0,0E0,0E0,0E0,0E0,0E0,0E0,0E0,0E0,0E0],"parents":[2147483647,0,0,1,1,2,2,3,3,4,4,5,5,6,6,7,7,9,9,10,10,11,11,12,12,13,13,14,14,15,15,17,17,19,19,20,20,21,21,22,22,23,23,24,24,25,25,26,26,27,27,28,28],"right_children":[2,4,6,8,10,12,14,16,-1,18,20,22,24,26,28,30,-1,32,-1,34,36,38,40,42,44,46,48,50,52,-1,-1,-1,-1,-1,-1,-1,-1,-1,-1,-1,-1,-1,-1,-1,-1,-1,-1,-1,-1,-1,-1,-1,-1],"split_conditions":[-3.4334403E-1,4.0726635E-1,-3.6962396E-1,6.679562E0,-9.96251E-1,5.704338E-1,-3.770379E-2,2.2750797E0,1.8335415E-1,5.508824E-1,-6.5146387E-1,1.7085238E-1,6.0296326E-4,4.8563007E-2,8.9865905E-1,-3.9853036E-1,1.7644724E-1,-1.4759183E-1,-1.0919408E-1,-5.874857E-1,2.2509577E0,-1.5563395E0,8.5807014E-1,-1.8895769E-1,1.4882122E0,2.7405527E-1,1.1330459E0,9.4165146E-1,9.6854985E-2,-1.4693584E-1,-7.7431984E-2,4.107178E-1,-9.21547E-2,-1.1117287E-1,1.3941064E-1,-1.3310866E-1,1.17446184E-1,4.6868148E-1,-4.6587847E-2,3.6578852E-1,9.4726615E-2,-1.1220097E-1,2.2275946E-1,-1.11860685E-1,1.929875E-1,-1.0033328E-1,1.646639E-1,2.2642837E-1,-3.621789E-2,-1.1647126E-1,1.7993662E-1,3.432787E-1,-5.4166846E-2],"split_indices":[16,35,14,18,13,30,36,33,0,1,45,13,21,7,17,16,0,25,0,10,39,29,33,7,25,18,3,13,14,0,0,0,0,0,0,0,0,0,0,0,0,0,0,0,0,0,0,0,0,0,0,0,0],"split_type":[0,0,0,0,0,0,0,0,0,0,0,0,0,0,0,0,0,0,0,0,0,0,0,0,0,0,0,0,0,0,0,0,0,0,0,0,0,0,0,0,0,0,0,0,0,0,0,0,0,0,0,0,0],"sum_hessian":[1.0464989E3,4.3394827E2,6.125506E2,2.8742023E2,1.4652803E2,1.8437883E2,4.2817175E2,2.8626163E2,1.1586041E0,1.4883335E1,1.316447E2,1.3248901E2,5.1889812E1,2.4365616E2,1.845156E2,2.850667E2,1.1949134E0,1.2668665E1,2.2146711E0,5.686289E1,7.4781815E1,2.8564304E1,1.03924706E2,2.9390097E1,2.2499718E1,8.704416E1,1.56612E2,1.3502106E2,4.9494545E1,2.6427438E2,2.0792332E1,1.1285933E1,1.3827316E0,2.746753E1,2.939536E1,7.313108E1,1.6507325E0,5.9847517E0,2.2579554E1,8.6577805E1,1.7346899E1,7.860368E0,2.152973E1,2.1425863E1,1.0738547E0,7.608154E1,1.0962613E1,1.0900462E2,4.7607372E1,1.3217253E2,2.8485196E0,1.0352608E1,3.9141937E1],"tree_param":{"num_deleted":"0","num_feature":"57","num_nodes":"53","size_leaf_vector":"0"}},{"base_weights":[-7.6506548E-3,-3.2381988E-1,3.2875106E-1,-4.6521038E-1,7.5359665E-2,-5.375865E-2,7.5320643E-1,-4.8133618E-1,1.9577558E-1,-1.5754439E-1,5.947623E-1,2.5507978E-1,-3.0420098E-1,9.285648E-1,3.8042083E-1,-4.8636243E-1,6.958149E-1,-2.5095183E-1,1.6991489E0,-2.6346028E-1,8.1085426E-1,1.0617805E0,-1.01126164E-1,-3.6154625E-1,6.9394344E-1,3.3866655E-2,-4.9639854E-1,1.1254002E0,3.4308895E-1,-3.492622E-1,6.360173E-1,4.2814142E-1,-4.9135938E-1,-4.7264418E-1,6.684639E-1,-4.0944803E-1,1.7947072E-1,2.1730602E0,-1.7193839E-1,1.6704112E0,3.8698503E-1,-3.4190258E-1,5.487141E-1,1.7660583E0,-4.7463357E-1,1.0061783E-1,1.195553E0,8.3293504E-1,-3.6166638E-1,-5.1730925E-1,6.862283E-1,1.3682375E0,7.7902186E-1,-8.89248E-2,9.851261E-1,-4.8720035E-1,1.0687646E0,2.9107922E-1,9.306843E-1],"categories":[],"categories_nodes":[],"categories_segments":[],"categories_sizes":[],"default_left":[1,1,1,1,1,1,1,1,1,1,1,1,1,1,1,1,0,1,0,1,1,1,1,1,1,1,1,1,1,1,1,0,0,0,0,0,0,0,0,0,0,0,0,0,0,0,0,0,0,0,0,0,0,0,0,0,0,0,0],"id":24,"left_children":[1,3,5,7,9,11,13,15,17,19,21,23,25,27,29,31,-1,33,-1,35,37,39,41,43,45,47,49,51,53,55,57,-1,-1,-1,-1,-1,-1,-1,-1,-1,-1,-1,-1,-1,-1,-1,-1,-1,-1,-1,-1,-1,-1,-1,-1,-1,-1,-1,-1],"loss_changes":[1.1046835E2,3.0253304E1,8.1743164E1,4.309868E0,1.7138462E1,2.062263E1,1.5244293E1,2.6244583E0,7.2296886E0,1.0272505E1,1.4351808E1,3.2586315E1,9.577057E0,1.8234161E1,1.4774198E1,1.9711761E0,0E0,2.0853179E0,0E0,5.838515E0,1.36459465E1,1.0161198E1,3.0845766E0,1.295026E1,2.075726E1,1.7452517E1,2.6763363E0,9.068359E0,1.1762617E1,4.6060944E0,5.6384354E0,0E0,0E0,0E0,0E0,0E0,0E0,0E0,0E0,0E0,0E0,0E0,0E0,0E0,0E0,0E0,0E0,0E0,0E0,0E0,0E0,0E0,0E0,0E0,0E0,0E0,0E0,0E0,0E0],"parents":[2147483647,0,0,1,1,2,2,3,3,4,4,5,5,6,6,7,7,8,8,9,9,10,10,11,11,12,12,13,13,14,14,15,15,17,17,19,19,20,20,21,21,22,22,23,23,24,24,25,25,26,26,27,27,28,28,29,29,30,30],"right_children":[2,4,6,8,10,12,14,16,18,20,22,24,26,28,30,32,-1,34,-1,36,38,40,42,44,46,48,50,52,54,56,58,-1,-1,-1,-1,-1,-1,-1,-1,-1,-1,-1,-1,-1,-1,-1,-1,-1,-1,-1,-1,-1,-1,-1,-1,-1,-1,-1,-1],"split_conditions":[3.3261338E-1,-7.317287E-2,7.836369E-2,2.1447694E0,6.19928E-1,5.980081E-2,8.2391965E-1,5.1401777E0,1.0699683E0,1.445832E0,-3.568411E-1,-3.8119683E-1,1.459091E-1,7.5494814E-1,-2.590065E-1,-2.6253018E0,2.0168394E-1,8.053527E-1,4.9250317E-1,1.6789109E-1,-5.486586E-1,7.9964644E-1,2.4003665E-1,-1.5320153E0,1.3844553E-1,-3.5649407E-1,1.1704607E0,2.754526E-1,2.6469332E-1,1.782779E0,1.080699E0,1.2409801E-1,-1.4242192E-1,-1.3699727E-1,1.9375616E-1,-1.1867968E-1,5.20201E-2,6.298677E-1,-4.9836833E-2,4.8417348E-1,1.12168714E-1,-9.910144E-2,1.5904635E-1,5.11897E-1,-1.375739E-1,2.9164366E-2,3.4653443E-1,2.414286E-1,-1.04830034E-1,-1.4994356E-1,1.9890523E-1,3.9658755E-1,2.258017E-1,-2.5775108E-2,2.855416E-1,-1.4121641E-1,3.0978447E-1,8.437014E-2,2.697615E-1],"split_indices":[1,16,26,28,26,15,18,8,11,51,19,4,11,11,16,27,0,43,0,1,21,5,7,19,13,19,2,15,40,1,24,0,0,0,0,0,0,0,0,0,0,0,0,0,0,0,0,0,0,0,0,0,0,0,0,0,0,0,0],"split_type":[0,0,0,0,0,0,0,0,0,0,0,0,0,0,0,0,0,0,0,0,0,0,0,0,0,0,0,0,0,0,0,0,0,0,0,0,0,0,0,0,0,0,0,0,0,0,0,0,0,0,0,0,0,0,0,0,0,0,0],"sum_hessian":[1.0366273E3,5.3440283E2,5.0222443E2,3.9450327E2,1.3989958E2,2.646243E2,2.3760014E2,3.853733E2,9.129993E0,9.706955E1,4.2830032E1,1.1848876E2,1.4613553E2,1.6057486E2,7.702528E1,3.8431912E2,1.0541556E0,7.6807365E0,1.4492568E0,8.815571E1,8.913841E0,2.5315046E1,1.7514986E1,4.9339874E1,6.914889E1,5.3266224E1,9.28693E1,1.1948284E2,4.1092014E1,1.9886463E1,5.7138817E1,1.6283631E0,3.8269077E2,6.5800614E0,1.100675E0,6.635954E1,2.1796165E1,3.228228E0,5.6856136E0,1.253431E1,1.2780736E1,1.3125603E1,4.389383E0,1.7524688E0,4.7587406E1,3.2228363E1,3.6920525E1,1.727032E1,3.5995903E1,9.1808556E1,1.060743E0,6.8505325E1,5.097752E1,2.5078617E1,1.6013397E1,1.8721737E1,1.1647279E0,2.7239729E1,2.989909E1],"tree_param":{"num_deleted":"0","num_feature":"57","num_nodes":"59","size_leaf_vector":"0"}},{"base_weights":[-6.0604974E-3,3.8874242E-1,-2.9312742E-1,6.971627E-1,4.6645902E-2,6.186489E-1,-3.97173E-1,-3.7823948E-1,8.211921E-1,5.559061E-1,-1.01349644E-1,1.0790914E0,-2.0661837E-1,2.3783676E-1,-4.5194143E-1,-4.850705E-1,2.947416E-1,-2.8728923E-1,8.920731E-1,-3.137748E-1,9.0472764E-1,1.830107E-1,-3.722151E-1,4.3135784E-3,1.3563256E0,3.4231785E-1,-4.6521944E-1,7.8245145E-1,-5.199675E-1,1.9248591E-1,-4.7336042E-1,4.2952646E-2,-5.2900803E-1,-3.4875745E-1,9.265185E-1,-4.927258E-1,7.618514E-1,1.1005229E0,5.1177496E-1,7.1822804E-1,-4.4503298E-1,1.1300657E0,-3.2565206E-1,-2.5868611E-2,6.2562406E-1,2.7645534E-1,-4.7358033E-1,-3.6920694E-1,8.669215E-1,-2.318955E-1,1.5351427E0,-1.8920915E-1,1.5021504E0,-5.2443886E-1,2.0980458E-1,1.4447591E0,-7.2557054E-2,-3.664969E-1,5.994036E-1,9.782806E-1,-4.8287868E-1],"categories":[],"categories_nodes":[],"categories_segments":[],"categories_sizes":[],"default_left":[1,1,1,1,1,1,1,1,1,1,1,1,1,1,1,1,1,1,1,1,1,1,1,1,1,1,1,1,0,1,1,0,0,0,0,0,0,0,0,0,0,0,0,0,0,0,0,0,0,0,0,0,0,0,0,0,0,0,0,0,0],"id":25,"left_children":[1,3,5,7,9,11,13,15,17,19,21,23,25,27,29,31,33,35,37,39,41,43,45,47,49,51,53,55,-1,57,59,-1,-1,-1,-1,-1,-1,-1,-1,-1,-1,-1,-1,-1,-1,-1,-1,-1,-1,-1,-1,-1,-1,-1,-1,-1,-1,-1,-1,-1,-1],"loss_changes":[1.19679245E2,4.687419E1,5.8246986E1,3.1484856E1,1.6023174E1,2.4167406E1,1.9214333E1,1.9297938E0,1.6745773E1,1.4801971E1,1.2776506E1,1.2093842E1,3.481857E0,1.8680285E1,7.076935E0,5.290942E-1,1.9602224E0,3.256998E0,1.5093155E1,2.2760096E0,9.909479E0,7.5198545E0,5.708829E0,3.3261926E0,9.522911E0,5.260148E0,7.6299286E-1,1.4919395E1,0E0,4.084563E0,7.2444153E0,0E0,0E0,0E0,0E0,0E0,0E0,0E0,0E0,0E0,0E0,0E0,0E0,0E0,0E0,0E0,0E0,0E0,0E0,0E0,0E0,0E0,0E0,0E0,0E0,0E0,0E0,0E0,0E0,0E0,0E0],"parents":[2147483647,0,0,1,1,2,2,3,3,4,4,5,5,6,6,7,7,8,8,9,9,10,10,11,11,12,12,13,13,14,14,15,15,16,16,17,17,18,18,19,19,20,20,21,21,22,22,23,23,24,24,25,25,26,26,27,27,29,29,30,30],"right_children":[2,4,6,8,10,12,14,16,18,20,22,24,26,28,30,32,34,36,38,40,42,44,46,48,50,52,54,56,-1,58,60,-1,-1,-1,-1,-1,-1,-1,-1,-1,-1,-1,-1,-1,-1,-1,-1,-1,-1,-1,-1,-1,-1,-1,-1,-1,-1,-1,-1,-1,-1],"split_conditions":[-4.4234717E-1,-3.5222486E-1,-1.0180249E0,-9.5589334E-1,-1.5273356E0,-4.4400376E-1,-9.768567E-1,2.0321002E-2,-1.0343393E0,-1.2975625E0,-2.4500734E-1,-7.1327364E-1,-2.2508231E-1,-2.2589657E-1,-6.3330793E-1,-1.3365227E0,-1.9878514E-1,4.153147E-1,-4.7998524E-1,-1.7749662E0,2.427225E0,4.9948704E-1,-1.3356545E0,2.2071718E-1,-9.5332974E-1,5.782521E-1,1.0085852E0,2.0160696E-1,-1.5071407E-1,-4.4806632E-1,-1.1960931E0,1.2449947E-2,-1.5333448E-1,-1.01088345E-1,2.6855403E-1,-1.4281797E-1,2.208248E-1,3.189897E-1,1.4833944E-1,2.0818046E-1,-1.2899408E-1,3.2755277E-1,-9.439118E-2,-7.498091E-3,1.8133892E-1,8.0131374E-2,-1.3726862E-1,-1.07015684E-1,2.5127968E-1,-6.721558E-2,4.4496548E-1,-5.484281E-2,4.354026E-1,-1.520101E-1,6.081246E-2,4.1876757E-1,-2.103087E-2,-1.0623017E-1,1.7373885E-1,2.8355742E-1,-1.3996376E-1],"split_indices":[1,36,3,14,1,28,30,22,22,3,30,4,6,27,12,53,8,21,32,51,42,54,5,13,43,22,7,13,0,22,32,0,0,0,0,0,0,0,0,0,0,0,0,0,0,0,0,0,0,0,0,0,0,0,0,0,0,0,0,0,0],"split_type":[0,0,0,0,0,0,0,0,0,0,0,0,0,0,0,0,0,0,0,0,0,0,0,0,0,0,0,0,0,0,0,0,0,0,0,0,0,0,0,0,0,0,0,0,0,0,0,0,0,0,0,0,0,0,0,0,0,0,0,0,0],"sum_hessian":[1.0539738E3,4.435734E2,6.104003E2,2.3272243E2,2.1085095E2,6.201367E1,5.4838666E2,2.385315E1,2.0886928E2,4.685709E1,1.6399387E2,3.9607716E1,2.2405958E1,4.3276554E1,5.051101E2,2.0826336E1,3.026813E0,1.2369784E1,1.964995E2,1.34425745E1,3.3414516E1,8.016221E1,8.383165E1,8.329927E0,3.1277788E1,7.071485E0,1.5334473E1,2.5161268E1,1.8115288E1,1.5991485E1,4.8911862E2,1.6015846E0,1.9224752E1,1.7214236E0,1.3053895E0,1.07877445E1,1.5820401E0,1.2570435E2,7.079515E1,1.0122218E0,1.2430353E1,2.8311022E1,5.1034937E0,5.5100555E1,2.5061651E1,1.1096173E1,7.273548E1,6.2120266E0,2.1179013E0,3.1351452E0,2.8142643E1,5.4230704E0,1.6484146E0,1.430278E1,1.0316929E0,1.3789707E1,1.137156E1,6.7787924E0,9.212692E0,2.523201E0,4.8659543E2],"tree_param":{"num_deleted":"0","num_feature":"57","num_nodes":"61","size_leaf_vector":"0"}},{"base_weights":[-1.5016334E-2,-3.9548877E-1,5.792153E-1,7.570747E-1,-4.3592736E-1,-2.2530396E-1,8.6982626E-1,1.0612484E0,-4.3648493E-1,3.4058833E-1,-4.670348E-1,-3.2083637E-1,